2687 100
shall 0.002015 -0.003948 -0.004199 -0.001247 0.001385 -0.003695 -0.001838 0.004600 -0.001546 -0.000263 -0.003668 0.002676 0.000860 0.003474 -0.000682 0.002726 0.003135 -0.000715 0.003708 0.004718 0.004967 0.004952 0.002549 -0.004685 -0.004349 0.003857 0.003332 0.002364 -0.000257 -0.004982 -0.003621 0.001459 0.004880 -0.001641 -0.004915 0.004472 0.000528 0.001774 -0.000764 0.002796 -0.000184 0.004618 -0.002155 -0.001951 -0.000195 0.001570 -0.000461 -0.001666 0.002940 -0.001896 0.003382 0.002053 -0.001322 -0.001890 -0.003588 0.004518 -0.002342 0.002820 0.003426 -0.001785 -0.004852 -0.002028 -0.002985 -0.000695 -0.003165 0.002237 -0.002933 0.001365 -0.001358 0.001748 0.003456 -0.000148 -0.000305 -0.004462 -0.002508 -0.001150 0.003231 0.002850 0.004035 -0.002203 -0.000693 -0.002469 -0.001811 -0.003671 -0.003581 0.000974 0.002936 -0.001523 0.002375 -0.002257 0.003286 -0.001944 0.003381 0.001026 0.002326 -0.000012 -0.000551 0.003635 -0.001671 0.002498
secretary -0.002969 -0.002239 0.001700 0.002138 0.003513 -0.001618 0.003501 -0.000186 -0.001455 -0.000984 -0.002266 0.001195 0.000813 0.004180 0.004334 0.003310 -0.002657 -0.001973 0.002679 0.003301 0.003098 -0.000392 -0.004382 -0.003468 0.001434 0.002376 0.001180 -0.002678 -0.001107 0.003168 -0.000239 0.002002 -0.000010 0.000877 0.004354 0.002682 -0.000876 -0.003812 -0.004465 -0.002127 0.003566 0.001097 0.004360 -0.004562 -0.004465 0.000057 -0.000765 -0.002330 -0.002605 0.003103 -0.003366 -0.002801 -0.003872 0.001923 0.002577 0.000489 0.004725 -0.004066 0.003746 0.001964 0.000027 0.003173 0.001739 0.003319 -0.000697 0.000560 -0.000025 -0.004385 -0.004440 -0.004717 -0.001542 0.002907 0.002298 -0.002708 0.004426 -0.003858 -0.000511 0.004361 -0.001551 0.002144 0.001719 0.003474 0.002983 0.001377 -0.003964 0.000618 0.000891 -0.001468 -0.000675 0.001127 -0.001761 -0.004079 0.000790 0.003035 -0.001401 0.004024 0.003211 0.003894 0.002785 -0.002420
section 0.000523 0.001201 -0.004683 0.004309 -0.003117 -0.001388 0.003453 0.002155 0.003981 -0.000389 -0.000380 -0.003251 -0.001635 0.003685 0.003884 0.004509 -0.001002 0.004031 -0.000564 0.004852 -0.003968 -0.001777 -0.004314 -0.003581 -0.001464 -0.003476 -0.002074 0.002110 0.004703 0.003410 0.001500 -0.002828 -0.003902 0.001708 -0.004553 -0.002490 -0.002270 0.000845 -0.004700 -0.004695 0.002773 0.004474 -0.000893 0.001795 -0.000024 -0.001725 0.002171 0.003960 -0.003408 -0.004986 0.003680 0.003489 -0.002414 -0.000671 -0.002889 0.001924 0.002631 0.000141 -0.000426 -0.001068 0.001093 0.000035 -0.003410 -0.003744 0.004761 0.001922 -0.002617 0.004342 0.002438 0.000914 0.004539 0.001779 0.002471 0.003025 -0.003878 0.003883 -0.000401 -0.000348 0.003207 0.000088 -0.000333 -0.001057 0.003488 -0.004045 -0.004404 -0.004910 0.002500 0.004229 -0.003341 0.003984 0.001515 -0.000608 -0.003544 -0.002676 0.003590 0.002863 0.000667 -0.000019 0.003384 -0.003968
may -0.002029 -0.002465 -0.002513 -0.002478 0.002673 -0.000088 -0.003258 -0.001630 0.004794 0.001749 -0.000792 -0.003075 0.001419 0.001978 0.002665 -0.001902 -0.000600 -0.000584 0.004190 -0.001055 0.002848 -0.002657 -0.001016 0.003616 0.003358 0.003645 -0.002923 0.003222 0.003617 -0.004727 -0.001081 -0.004156 0.001599 0.004698 -0.004759 0.004960 0.002120 0.000867 -0.003702 -0.003079 0.000485 0.001684 -0.000425 -0.002859 -0.000141 0.003927 0.003252 -0.002230 0.003021 0.000111 -0.000067 -0.001331 -0.004985 0.000827 0.002175 -0.001905 0.003429 0.000864 -0.004028 0.001181 -0.002966 0.004184 -0.003257 0.004470 0.003098 0.003089 -0.002672 0.001296 -0.000763 -0.001289 -0.001251 -0.002934 -0.000463 -0.003005 -0.002395 0.003577 -0.004741 -0.002086 0.003179 0.000730 0.002330 -0.000038 -0.004616 -0.002655 -0.002863 -0.000640 -0.003257 0.004831 0.002312 0.000406 -0.003491 -0.004575 -0.002525 -0.000536 -0.004742 0.004946 0.002881 -0.004611 0.004242 -0.002848
coal -0.002242 -0.002931 -0.003309 0.000659 -0.000158 0.003128 0.003596 -0.000006 0.004910 -0.004561 -0.002141 -0.002779 0.001456 0.002493 0.002496 -0.001242 0.002704 -0.002922 -0.002777 0.002714 -0.003203 -0.002876 -0.001524 -0.002766 -0.004743 0.003496 0.000200 0.000362 0.004228 0.004139 0.003808 -0.004842 -0.001659 -0.002145 0.004021 -0.002527 -0.000502 0.003740 -0.000911 -0.004750 -0.004396 -0.000011 -0.002154 -0.004976 0.001009 -0.002732 -0.002546 -0.003030 -0.003055 -0.000188 -0.002111 -0.001949 -0.002282 0.003475 0.004937 -0.001322 -0.004169 -0.001921 -0.003949 0.000413 -0.001684 -0.000702 -0.003431 0.002736 -0.001040 -0.001478 -0.000414 -0.003357 0.001509 -0.003647 0.003840 -0.000936 0.003886 -0.003258 0.000638 -0.002691 0.004073 0.004437 0.004657 -0.000410 -0.004985 0.001162 0.003910 0.002849 -0.003801 -0.000007 0.001501 0.003163 -0.003296 -0.002232 -0.001351 0.000751 0.004509 -0.001941 0.003436 0.004047 0.000291 0.003956 0.001551 -0.003517
title 0.003279 0.000260 0.004880 0.004971 0.001789 -0.001727 0.002405 -0.003376 0.004222 -0.003870 -0.000679 -0.004178 0.002461 0.000122 -0.001763 0.003009 -0.000695 0.001126 0.000225 0.002196 0.003557 0.000019 0.002148 -0.003406 -0.004763 -0.001288 0.000386 0.003968 0.000181 0.004995 -0.003714 0.003144 0.004433 0.002584 0.002136 0.001606 -0.001214 0.004903 0.000825 0.002107 0.003170 -0.003531 -0.004316 -0.002183 0.002107 0.000676 -0.004875 -0.000302 0.004576 0.000464 0.001689 -0.001166 -0.000275 -0.000326 0.000810 -0.004943 -0.003050 0.003720 0.000808 -0.001666 -0.003289 0.003876 0.003287 -0.003415 -0.003408 -0.004798 -0.001921 -0.003996 0.000632 0.003752 -0.000124 0.004579 -0.003312 -0.002051 0.000062 0.004378 -0.004527 -0.003327 0.003216 -0.004819 0.004636 -0.002071 0.004326 0.001628 0.000902 0.003773 0.003705 0.003053 -0.003408 -0.000685 0.004641 0.001523 -0.004718 0.001464 -0.004999 -0.001405 0.002450 0.004260 -0.001034 0.002295
mining -0.000167 -0.003965 0.000681 0.002410 0.000431 0.004279 -0.001265 -0.000609 0.003502 -0.000788 -0.000839 0.003895 -0.003006 0.003375 0.002606 -0.001093 -0.001602 -0.004215 0.002689 0.001008 -0.000598 -0.001310 0.002525 -0.002722 -0.004823 0.004642 0.002295 0.003389 -0.002977 -0.001159 0.001994 -0.003157 -0.003791 -0.002002 -0.002006 -0.002730 0.004088 -0.003167 0.004283 0.004356 0.004181 -0.003947 -0.004897 0.002217 -0.000633 0.003431 0.003142 -0.000362 -0.002951 -0.001362 0.004404 0.000768 -0.002169 -0.001745 -0.003830 0.002434 -0.004911 -0.000330 -0.001773 -0.004466 -0.001924 -0.003538 -0.003926 -0.000131 -0.003523 0.003987 -0.003988 0.000677 0.001830 0.000846 -0.002954 0.001846 0.000160 -0.000374 0.001502 -0.002596 -0.004949 -0.004986 -0.002975 0.001594 -0.004985 -0.001319 -0.001269 -0.000816 -0.001004 -0.004485 -0.001338 -0.002950 -0.001532 0.000173 -0.004009 -0.004174 0.004353 0.004696 -0.003035 -0.003629 -0.000658 0.002974 -0.003828 -0.004410
state -0.002525 0.003517 -0.001351 -0.002744 0.002557 0.001491 0.001743 -0.003342 0.003335 -0.002552 0.004338 -0.002407 0.003032 0.002892 -0.004081 -0.000472 -0.000998 -0.000512 -0.004346 -0.004551 -0.000172 -0.002733 -0.004120 -0.003732 -0.000923 0.002432 0.003900 0.002623 0.000453 -0.004100 -0.003717 -0.004023 0.003014 0.004686 0.001552 0.000223 0.004098 0.001335 0.000565 0.002291 -0.001170 0.003893 0.002646 -0.003774 -0.002982 -0.000248 -0.001607 -0.004696 -0.004760 0.001578 0.002553 0.000145 -0.000433 0.003960 -0.000945 0.003786 0.004167 0.004186 -0.004031 -0.000012 0.004229 0.003018 0.001747 -0.002016 0.000551 0.004061 -0.004476 -0.002526 0.001132 -0.000784 -0.001186 -0.003481 -0.000867 -0.000937 0.004867 0.002571 0.001809 0.003433 0.002552 -0.002670 0.001486 -0.003981 0.003581 0.002809 -0.000854 -0.002168 -0.002205 0.000554 -0.004798 0.004594 0.002271 -0.004872 -0.001215 -0.001933 0.002626 0.001815 -0.001369 -0.002508 0.001086 0.000063
lands 0.000890 0.003615 0.003793 -0.003792 -0.001549 -0.003298 0.004577 -0.000095 0.001925 -0.003983 0.002062 -0.000148 0.002283 0.001662 0.004910 0.004788 -0.004420 -0.002384 -0.001623 0.001357 -0.003270 0.002542 -0.004591 -0.001611 -0.001219 0.001602 -0.001980 -0.002130 -0.000933 0.004280 -0.003109 -0.004418 -0.004689 -0.003664 0.000336 -0.004919 0.004426 -0.003048 0.004379 -0.002659 0.000231 -0.004887 -0.002844 0.004380 -0.003113 0.004095 -0.004621 0.000243 0.000198 -0.000556 0.001023 -0.003503 0.002268 -0.003018 -0.001158 -0.004335 -0.002223 -0.003692 0.003134 0.000226 0.003149 -0.003549 -0.001085 -0.001267 0.001436 0.003019 -0.003145 0.002194 -0.001331 0.002166 0.001272 0.001036 0.000075 0.004820 -0.003677 0.003635 -0.004402 0.003427 -0.001035 -0.003074 0.001812 0.000785 -0.000592 0.001098 -0.001890 0.004778 0.000633 0.004192 -0.000257 -0.000727 -0.004436 -0.004288 0.000179 0.003421 0.003602 0.004145 -0.001654 -0.001881 -0.002382 -0.004879
states 0.003857 -0.002749 -0.000159 0.000044 -0.003565 -0.004332 0.004029 -0.002142 0.002616 -0.002855 -0.001324 -0.004311 -0.002012 -0.001864 -0.002178 0.002685 -0.004573 0.003176 0.004966 -0.004923 0.001299 0.000420 0.004097 0.004714 0.000989 -0.004715 -0.003819 -0.000780 -0.001565 -0.004866 0.004511 0.003736 0.001297 -0.000076 0.000326 0.002316 -0.004979 -0.001007 0.003443 0.002491 -0.002450 0.002645 0.000881 -0.002590 -0.004113 0.000965 -0.001853 -0.000191 -0.002969 -0.004324 0.000100 -0.002894 0.003234 0.002405 0.003174 0.002568 -0.000189 0.003813 -0.001639 -0.003294 -0.000733 -0.001608 -0.004250 0.004105 0.000631 -0.001716 -0.002153 -0.000230 0.002333 0.000570 0.002264 -0.001139 -0.001522 -0.003310 -0.001728 -0.004574 -0.004749 -0.001662 0.000395 0.002749 0.004188 -0.002308 0.001345 0.002189 0.002299 0.003299 0.001472 0.004385 -0.004525 -0.001265 -0.004582 -0.000245 -0.003207 -0.000598 -0.004558 0.001082 0.002698 -0.000812 -0.002059 -0.002174
chapter 0.000203 0.003482 -0.000521 -0.000529 -0.002016 -0.004590 0.004479 0.004125 0.000704 -0.003036 0.000964 0.003413 0.000121 -0.003892 0.002082 -0.002821 -0.004803 -0.000990 -0.003335 0.003184 0.003122 0.003185 -0.001598 -0.003744 0.000129 0.000980 0.002358 0.003549 -0.002933 -0.000666 0.002485 0.002510 -0.003736 0.000587 0.000317 0.003941 -0.002628 -0.001839 0.003751 0.001475 0.003556 -0.004494 -0.002339 0.000098 0.001599 -0.004851 0.002648 0.004798 0.000631 0.002005 0.002257 -0.004840 -0.001587 0.004209 0.001605 0.001132 -0.002559 -0.004024 -0.000613 0.003760 0.000619 -0.001333 0.002749 -0.003922 0.003965 0.002665 0.004969 0.002398 -0.003966 -0.002220 -0.004060 -0.002040 -0.003654 0.001584 -0.004560 -0.001846 0.000114 0.003957 0.003930 -0.003001 0.004680 0.002493 -0.000333 -0.001896 0.002996 -0.003630 -0.003158 -0.000173 -0.000036 0.002424 -0.002272 -0.001249 -0.000594 0.002774 -0.001785 0.003721 0.004980 0.001010 0.004744 0.002824
lease 0.003807 -0.001040 0.003501 -0.004957 0.001634 -0.002239 -0.001276 0.004892 0.001296 -0.003447 0.001207 0.002814 0.002359 0.001828 -0.000060 0.001051 0.000897 -0.003939 -0.001972 -0.003563 0.000630 0.000795 -0.004721 -0.003263 -0.003364 0.001500 0.002848 0.004741 -0.000406 0.000171 0.001471 0.003049 0.002296 0.004564 0.004816 -0.001709 -0.000511 -0.000935 -0.003636 0.003187 -0.000525 -0.000608 -0.003344 -0.000005 0.000989 -0.004148 -0.002572 0.000660 0.002904 0.002964 0.001241 0.000917 -0.002391 0.004528 -0.000505 0.004457 -0.003354 0.000231 -0.003795 -0.004387 0.004394 0.004234 -0.003530 0.002901 -0.004079 -0.004967 -0.001629 -0.004170 0.001444 0.001236 -0.002265 -0.003605 -0.000973 -0.002486 -0.001828 -0.001052 0.001662 -0.003864 -0.002209 0.000741 0.002063 -0.002912 0.001073 -0.001258 -0.004004 -0.002906 -0.001074 -0.003504 -0.001771 0.003517 0.003920 0.001740 -0.003582 -0.001389 0.002428 0.002586 -0.004883 -0.001284 -0.000155 0.001616
mine -0.000616 -0.003391 -0.000835 0.001129 -0.000718 -0.003854 -0.004594 0.003262 -0.002113 0.004346 0.000714 0.003693 0.002930 0.001427 -0.003389 0.000324 -0.000270 -0.002494 0.001079 0.001863 -0.003572 0.000935 -0.000098 0.000721 -0.000681 -0.003052 -0.001266 0.002304 0.001179 -0.001359 0.002384 -0.002884 0.002972 0.000770 -0.002197 -0.000733 0.004629 -0.004465 0.004035 0.004296 0.003242 -0.003137 0.002190 -0.001173 0.002370 -0.004198 0.004501 0.002438 0.000843 0.001612 -0.004129 0.004220 0.000267 0.000960 -0.003552 -0.002982 -0.003544 0.004994 0.000106 0.000938 -0.000483 0.003604 -0.003445 0.000030 -0.001606 -0.000405 -0.000903 -0.003938 -0.003897 0.000185 -0.003548 0.001739 -0.004381 0.000104 -0.001183 0.000042 -0.000670 -0.004912 -0.004207 -0.002799 -0.002438 0.002294 0.001675 -0.000358 0.000955 0.004547 0.004490 0.001836 0.001908 0.001557 0.003343 -0.004414 0.003938 -0.003446 0.004306 -0.003690 -0.001378 0.003246 -0.004924 -0.002682
united 0.002188 0.003442 0.003793 -0.003945 0.004250 0.000233 0.002297 0.002282 0.002117 0.002201 0.002218 0.000316 -0.003222 0.001531 0.001197 -0.004231 0.004239 0.004371 0.001623 0.001121 -0.002008 -0.003919 0.003500 -0.003752 -0.003858 -0.003040 0.000858 -0.004588 -0.002777 0.003993 -0.003952 -0.003269 -0.004293 0.002052 -0.001267 0.004500 -0.004686 0.000411 0.002896 -0.002732 0.004272 0.001227 0.002651 0.001577 0.002067 0.002875 -0.004022 -0.004827 -0.002172 0.002653 0.004308 0.000559 0.004391 -0.003025 -0.003426 0.001515 -0.004450 0.003614 0.002213 -0.002567 -0.001439 -0.001279 0.000406 0.004079 -0.001584 0.004640 -0.000975 -0.002436 0.004944 -0.000012 -0.002347 -0.003751 0.000327 -0.002893 -0.003005 -0.000858 0.000312 -0.000538 -0.004816 0.002235 0.001276 -0.002856 0.001038 -0.003152 -0.000116 0.004316 -0.004300 0.000822 -0.000659 -0.004694 0.004496 -0.003175 0.003187 -0.004203 0.003083 -0.004752 -0.001680 -0.004148 0.001240 0.001442
federal 0.001981 0.004390 -0.001847 0.000183 -0.001536 -0.001081 -0.000457 -0.004567 0.001943 -0.001730 -0.000155 0.003309 0.003455 0.001585 0.004674 0.000484 -0.000813 0.004438 -0.003786 -0.003527 -0.001229 0.001842 -0.004109 -0.003797 -0.000528 -0.002617 0.000144 0.003362 -0.004888 0.004825 -0.001120 -0.003983 -0.000357 -0.003735 0.001974 0.004739 -0.002025 0.004004 -0.000400 0.001551 -0.000861 0.002538 0.002823 0.001444 0.003472 0.001041 -0.003265 0.000324 0.004441 0.004572 0.001223 -0.004185 -0.004802 -0.001991 0.003453 0.001292 -0.003109 -0.003142 -0.004120 0.004513 0.004843 -0.001852 0.002477 -0.002450 -0.000541 -0.002886 0.000825 -0.000629 0.002497 -0.000937 -0.004815 0.000646 0.002738 0.001084 0.001082 -0.002440 0.003262 0.002074 0.003391 0.000575 -0.000811 0.003476 0.002680 -0.002500 -0.002378 0.001544 -0.004644 -0.000841 0.004860 0.002469 0.002920 -0.000020 -0.001537 0.002166 -0.003066 -0.001005 -0.000295 0.002580 -0.000126 -0.001288
subsection -0.000942 -0.004044 -0.000669 -0.004497 -0.004659 -0.002542 0.004812 0.001929 -0.001063 -0.000767 -0.001491 0.004890 0.002665 -0.002125 -0.002262 0.000977 0.002389 -0.004906 0.004386 0.004666 0.000093 0.001465 -0.003329 0.001279 0.003234 0.002775 0.004165 0.003725 -0.000548 0.004189 0.002892 -0.001459 0.000350 0.002567 -0.000603 -0.000095 -0.001629 -0.003412 -0.003222 -0.000552 0.000984 -0.003153 0.004836 0.000849 0.000577 0.000254 0.004796 -0.004919 -0.002642 0.003594 0.004034 -0.004133 -0.001934 0.004319 0.003999 -0.003888 0.001161 -0.004054 -0.001171 0.004583 -0.002765 0.004247 -0.004234 0.000072 -0.003603 0.000962 0.002010 -0.004128 -0.004017 -0.003826 -0.002217 0.003653 0.003163 0.003278 0.002769 -0.001910 -0.001353 0.000968 -0.001804 -0.004400 0.004531 0.001242 -0.002927 -0.001727 -0.004805 -0.000446 0.003863 0.004241 0.002961 0.001247 0.003125 -0.001228 0.000737 -0.003258 -0.001720 0.002241 0.003775 0.000622 0.002304 0.002005
permit -0.003871 -0.000847 -0.001055 -0.001368 -0.002440 -0.004319 -0.000021 0.003651 0.002000 0.000982 -0.003913 -0.003868 0.004812 0.003799 -0.002345 0.004408 -0.001953 -0.001956 0.003399 -0.003786 -0.003331 0.000549 -0.000501 -0.000952 0.003063 -0.002931 -0.003840 0.003247 0.003698 0.004992 0.004468 0.003980 -0.000092 0.003827 -0.002547 -0.000120 0.002188 -0.001420 -0.000635 -0.004783 0.003571 -0.004277 0.000543 -0.000427 -0.003862 0.002753 0.001905 0.002706 -0.003855 -0.000489 0.000301 -0.002362 -0.000168 -0.004943 0.000719 0.003873 -0.001789 -0.001117 -0.002937 0.002643 0.000927 -0.001672 -0.002591 0.000139 -0.002307 0.004029 0.003164 0.001505 -0.003116 -0.003714 0.000016 0.002874 0.001131 -0.003864 0.004512 0.004447 -0.003608 0.003925 -0.002734 0.002787 -0.001889 0.002141 -0.004219 0.003113 0.003236 0.000766 -0.000938 0.003625 0.003390 -0.000809 -0.001033 0.002110 0.001583 -0.004973 0.001388 -0.002368 0.003914 0.001287 0.004629 -0.001049
within -0.001588 0.002132 0.000788 -0.001629 0.004731 -0.002678 0.004661 -0.003608 -0.002282 -0.004616 -0.003607 0.004300 0.004896 -0.001572 -0.001344 0.002004 -0.004271 0.000058 0.003737 0.004582 0.003745 0.001382 0.003923 -0.000390 0.000272 -0.004952 0.001794 0.004757 0.002423 -0.003869 -0.002327 0.004140 0.002853 0.000353 -0.001672 0.000059 -0.000902 0.002451 -0.002312 0.000362 -0.003020 0.001863 -0.004121 0.000466 0.003066 -0.000106 -0.001614 0.004943 0.000252 0.003552 -0.004207 -0.003597 0.001271 0.001440 -0.004602 -0.001580 -0.002196 0.003000 -0.000738 0.003322 -0.004533 0.000863 -0.002577 0.000670 -0.003654 0.003071 0.001714 0.001251 0.001135 -0.001791 -0.002141 -0.000006 0.001334 -0.002404 0.000475 0.001071 0.001227 -0.004333 0.003194 0.002546 -0.000258 -0.004368 -0.002241 0.004871 0.004900 0.004680 0.001111 0.004791 -0.001800 -0.000619 0.001909 -0.004742 0.003381 0.002472 0.003366 0.000486 -0.001817 0.004338 -0.002656 -0.004458
provisions 0.000633 -0.003126 -0.002990 -0.001024 0.003565 -0.000839 0.002038 -0.002408 0.000149 -0.000903 -0.003916 0.004120 0.001747 0.004410 0.001458 -0.004969 0.003996 0.001870 0.003404 0.000009 0.003240 0.003392 -0.003200 -0.000849 -0.001331 -0.001770 -0.001401 -0.004846 -0.002921 0.002290 -0.002118 0.000103 0.000290 0.001655 0.004464 0.000576 -0.004799 0.002798 -0.003420 0.002170 0.004646 0.002701 -0.003483 0.000664 0.000532 0.004746 -0.004265 -0.004611 -0.002438 -0.002831 -0.001940 0.004294 0.000170 -0.001621 0.002923 0.002432 0.003900 0.004499 -0.003771 0.002454 -0.000914 -0.001609 -0.000561 -0.000041 0.004204 0.004578 -0.000306 0.001733 -0.000567 0.002280 0.004356 -0.002439 0.004635 -0.004090 0.003827 0.002945 0.002553 0.001455 0.001600 -0.003001 0.001165 -0.004763 -0.001958 -0.004010 0.000328 0.002865 -0.000612 -0.004109 -0.001051 0.004172 -0.003635 0.001677 0.003268 -0.002094 0.000698 -0.000959 -0.002048 0.001064 0.002271 0.002940
surface -0.000622 0.000756 0.003067 -0.001311 -0.004259 -0.004594 0.000824 0.000843 0.003937 0.001469 0.003896 0.002688 -0.003490 0.004203 0.004992 -0.003227 0.000007 -0.004191 -0.003262 0.003368 -0.000998 -0.002513 0.004085 0.002266 -0.002055 0.004586 -0.003090 -0.003734 0.004776 0.003921 -0.000120 0.001858 0.002969 -0.003119 0.004370 0.000136 -0.003493 -0.004489 -0.000807 0.001799 -0.001581 -0.000254 0.004385 -0.002132 0.003287 0.001974 0.002954 -0.003752 -0.000106 0.001274 0.004988 0.003994 -0.002279 -0.000109 0.004314 0.002273 -0.004579 -0.000685 -0.000997 -0.000169 0.000866 -0.003768 -0.001672 0.002232 0.000208 0.003458 -0.004719 -0.002990 0.001212 -0.001144 -0.000466 0.001565 -0.000615 -0.000955 0.003725 0.001881 -0.002265 -0.002325 0.003804 -0.003238 -0.003985 -0.004572 -0.000161 -0.004651 -0.000386 0.001992 -0.003224 -0.003022 0.002250 0.003218 -0.001793 0.004989 -0.001140 0.002013 0.002945 -0.003932 -0.004017 -0.004291 0.001406 -0.004752
provided -0.003581 -0.002247 0.002005 -0.002893 -0.000070 0.003903 0.000578 -0.004070 0.002330 -0.003821 -0.000047 -0.002453 0.003412 0.003623 0.003996 0.004484 0.004846 0.004231 0.004495 0.002369 0.003645 -0.001369 0.001261 0.003273 -0.000102 0.000169 -0.000217 -0.001691 -0.003186 0.002080 -0.002402 -0.001388 0.000858 0.004818 -0.004597 -0.002023 0.003490 0.000196 -0.003528 0.003312 0.000467 -0.001657 -0.000622 0.002193 0.000474 0.002581 0.000025 0.000390 -0.002343 -0.000101 -0.002389 -0.004505 -0.001662 -0.003086 -0.001666 -0.004435 0.002619 -0.001341 0.002508 -0.000074 -0.000677 0.004262 0.000286 -0.004866 -0.002501 -0.004540 -0.004544 -0.002196 -0.004172 -0.004854 -0.004200 0.000002 -0.000755 0.003155 -0.003163 0.000881 -0.003416 0.001723 0.003846 0.000907 -0.000029 0.002796 -0.002464 0.000043 -0.000920 0.000425 0.000485 0.004785 -0.000560 0.003189 0.002167 0.002740 0.000732 0.002797 -0.003181 -0.003979 -0.000348 0.001555 -0.001323 0.002420
pursuant -0.004164 -0.004552 0.002502 -0.000987 -0.002847 -0.003108 -0.001112 0.001016 0.003421 0.002553 -0.000566 -0.003873 -0.001409 0.003907 -0.004430 0.002825 -0.002074 -0.001008 0.003024 -0.000411 -0.003902 -0.004985 -0.003105 -0.004638 0.004926 0.001690 0.002125 -0.002888 0.004003 0.002513 0.004565 -0.003386 0.000163 0.004415 0.000076 0.000600 0.001529 0.001607 0.003005 0.002037 0.000260 0.004877 -0.001306 0.003148 0.001825 -0.002424 -0.001175 0.000508 -0.002124 0.003034 -0.000000 0.001672 -0.001701 0.000520 0.000007 -0.000913 0.000491 -0.000499 0.003292 0.002125 0.001744 -0.000602 -0.003913 0.003763 -0.001036 0.000064 -0.002108 -0.004026 0.001838 0.000849 0.001415 -0.004258 0.002328 -0.004845 0.002592 0.004782 0.000861 0.003709 0.002609 0.003395 0.000453 0.004266 -0.002677 0.001388 -0.004078 -0.002918 0.000833 -0.002721 -0.004663 -0.003541 -0.000698 -0.001152 0.004534 0.000208 -0.003651 -0.004735 -0.003482 -0.004405 0.004702 -0.002009
land -0.004047 0.003081 -0.002567 0.001562 -0.002933 -0.004095 -0.001338 0.003155 -0.004619 -0.002505 -0.000259 0.001623 0.004478 -0.002822 -0.000975 -0.004190 0.000285 0.001918 -0.004278 0.004377 -0.002007 0.002246 0.001349 -0.003579 -0.001898 -0.001419 -0.004383 0.001475 -0.000331 0.003825 0.003664 0.002030 -0.000267 -0.003470 0.003446 -0.001143 0.004716 -0.003934 -0.002213 -0.001285 0.003565 -0.004902 0.003617 0.002415 0.004609 0.004687 0.004540 0.001287 0.003810 -0.004042 0.000232 -0.001583 -0.004855 0.004968 0.001186 -0.004952 -0.002126 -0.001484 -0.001114 -0.003106 0.000364 -0.004912 -0.003353 0.001576 0.004786 0.002434 0.004143 -0.001525 -0.000750 0.001665 -0.003934 0.002945 -0.002981 -0.000711 0.001995 0.001187 -0.001338 0.002932 0.001608 -0.003896 -0.001899 0.003008 0.001421 0.004980 -0.003488 -0.001433 -0.004419 0.001403 0.001632 0.002376 -0.002983 0.003229 0.000009 0.002343 0.003729 -0.003576 -0.003188 0.003840 0.000587 -0.004308
person -0.004629 -0.001362 -0.001572 -0.001217 0.000851 -0.003204 -0.002182 -0.000386 0.002042 0.004240 0.004321 -0.004948 -0.000635 0.000695 0.001417 0.003139 -0.000974 -0.004279 0.002820 -0.000255 0.002643 0.000267 0.001194 0.000699 0.003853 -0.004587 0.000769 -0.004410 0.001505 -0.004305 -0.003693 0.000942 0.000346 -0.001609 0.004717 -0.000199 0.002727 0.002097 -0.004657 0.004308 -0.002268 -0.002265 -0.000829 0.002315 -0.004031 0.003354 0.000180 0.003989 -0.002594 -0.002388 0.001311 0.002016 -0.002061 -0.002561 -0.002367 -0.001546 -0.004477 0.002641 -0.001000 -0.001742 0.004369 -0.004097 0.001019 -0.001957 0.002752 -0.000039 -0.000403 -0.001907 -0.002785 -0.001983 0.000429 -0.004906 0.004044 0.001521 0.002198 0.002449 0.003456 0.003893 0.004838 0.001317 0.004386 0.000566 -0.004073 0.004026 0.001563 0.004371 -0.004863 -0.003601 -0.004742 -0.001874 -0.001955 -0.002097 -0.000661 0.000835 -0.000517 0.003073 0.002450 0.001372 0.001923 -0.001892
upon 0.002063 -0.001542 0.002840 -0.000601 -0.004612 -0.002379 -0.002344 0.003669 0.004186 -0.002662 0.000319 -0.004329 0.002424 -0.000630 -0.004618 -0.003917 0.002504 0.003161 -0.004368 -0.003239 0.002108 -0.003375 0.003727 0.004507 0.000133 0.002089 -0.001980 0.002345 -0.001625 -0.002512 0.004184 0.000905 -0.003566 0.004408 -0.000467 -0.002806 -0.004085 -0.000834 -0.001827 0.002699 0.003302 0.002448 -0.004886 -0.000044 0.002660 0.001136 0.000624 0.003391 0.002202 -0.003655 0.003905 0.002479 0.003364 0.000238 0.000073 0.004330 0.003833 0.003344 0.001021 -0.004633 -0.003181 -0.003644 0.003782 -0.002560 0.003223 0.004847 0.000020 -0.004278 -0.000879 -0.001521 0.000715 -0.004036 0.002751 -0.003843 0.001028 0.004627 -0.002083 0.000954 -0.002887 0.002705 -0.004364 0.000368 -0.004774 0.000630 0.001046 0.002072 0.002112 0.001221 -0.000214 -0.004067 -0.002576 0.003818 0.003657 -0.004419 -0.001231 -0.000753 -0.002077 -0.002294 0.001733 -0.003247
authorized 0.001434 0.000356 -0.000640 -0.000363 -0.000016 0.000749 0.002386 -0.004242 -0.000028 -0.000501 -0.002080 -0.003281 -0.002919 -0.001364 0.001717 -0.004706 -0.003828 0.004117 -0.000476 -0.001488 -0.003941 0.004772 -0.003711 -0.000422 0.003664 0.002977 -0.000198 0.003852 0.001492 -0.000708 -0.001558 0.000542 0.002471 -0.000184 -0.001580 0.001304 -0.004896 -0.001432 0.003417 -0.001078 0.001271 -0.004614 0.003969 -0.003304 0.003379 0.002701 -0.003776 -0.001863 -0.002025 -0.000947 0.003504 0.001581 0.001859 -0.002774 -0.003438 0.004795 -0.000270 0.004403 -0.002220 -0.004461 -0.001975 -0.004153 -0.004939 0.000078 0.000461 0.003029 -0.003701 0.004880 0.003279 0.001422 0.000559 0.003209 0.003735 0.004723 0.002092 0.002210 -0.004180 -0.002867 -0.003956 0.001490 0.001990 0.002642 0.002282 -0.000111 -0.002683 -0.000575 0.002995 0.004032 0.003281 -0.001776 0.002713 -0.002772 0.000951 -0.001283 0.003257 -0.001594 0.000218 0.002084 0.004056 -0.003707
subject 0.002188 -0.000528 0.004675 0.000435 0.000795 -0.002033 0.000867 0.004423 -0.003295 -0.001064 -0.001071 0.004411 -0.001607 -0.002204 0.003791 -0.003617 0.005000 -0.001973 -0.003336 -0.000415 -0.001882 -0.001492 -0.000421 -0.002965 0.000926 0.001897 0.000127 -0.002061 0.002688 0.000592 -0.001444 0.000255 -0.002764 0.001531 0.003834 -0.000615 -0.001662 -0.002733 -0.000205 0.001802 -0.002512 -0.002367 -0.004358 -0.000300 -0.003494 0.000089 -0.002950 -0.002385 -0.004333 0.001215 0.003872 0.000655 -0.001978 0.003619 0.002613 -0.003524 0.002733 0.002025 0.001209 -0.003041 0.002223 -0.001345 -0.004156 -0.003024 0.004903 0.001564 0.001702 0.004434 -0.001770 -0.000934 0.004046 0.004818 0.000875 -0.000874 0.003601 -0.000468 0.000452 0.001304 -0.004479 0.000275 -0.002035 0.003370 -0.003507 0.000562 -0.002745 -0.003251 0.001581 0.003752 -0.002643 0.000895 0.000450 -0.004843 -0.001916 0.002817 -0.002474 0.003256 -0.003085 0.002528 -0.002701 -0.000297
made -0.000401 -0.000659 -0.004407 0.004500 -0.000806 -0.001381 -0.004715 -0.001028 0.002967 -0.000896 0.001391 -0.001461 -0.003882 0.004373 -0.001654 0.004418 -0.003172 0.002797 -0.004296 -0.003034 -0.004194 0.001565 0.004651 -0.000467 -0.001472 0.004174 -0.003337 -0.000028 0.001150 0.004110 -0.002225 0.001899 0.001983 0.002797 -0.000014 0.002969 0.002403 0.001477 -0.002668 -0.003622 -0.000628 0.003446 -0.004178 -0.000429 -0.000165 0.004046 0.000163 -0.002630 0.000489 -0.002040 0.003197 -0.004383 0.003516 0.004203 -0.002884 -0.003589 -0.002115 -0.000506 0.003365 0.004640 0.004632 -0.003538 0.002890 0.002618 0.001484 -0.003735 -0.001701 0.004985 0.001278 -0.001172 0.004697 0.003855 -0.004729 -0.001517 0.002279 -0.000723 0.000177 0.004867 0.000824 -0.003435 0.000081 0.001569 -0.001070 0.002350 -0.002987 -0.002061 -0.000197 0.003312 -0.002296 0.002732 -0.000540 -0.000282 0.000066 0.001666 -0.000510 0.001424 0.004517 -0.002793 0.001175 -0.004023
issued 0.002751 -0.001949 -0.001421 -0.002379 0.004264 0.000084 0.001443 -0.002833 0.000230 -0.002986 -0.003396 -0.000284 0.003426 -0.000208 0.003105 0.002358 -0.004997 0.003133 -0.001458 -0.002882 0.004137 0.002310 -0.001061 -0.001375 0.002136 0.004602 -0.001495 -0.001640 0.001496 0.002225 -0.001144 0.003380 0.000511 0.003542 -0.001015 0.003049 0.002855 -0.002943 0.004823 -0.002892 -0.004646 -0.000946 0.003612 0.001965 -0.004952 -0.004906 0.004832 -0.000509 -0.000755 0.003196 -0.003135 -0.000337 -0.003952 -0.000982 0.000218 0.001108 0.003284 0.003491 -0.000994 0.003868 0.004100 0.000463 0.002681 -0.003333 -0.002359 -0.004876 -0.004060 -0.001500 -0.004147 0.002190 0.002577 -0.002327 0.003158 0.004205 -0.003466 0.000580 -0.003737 0.000411 -0.004682 -0.003986 0.002076 -0.001427 0.001729 -0.000183 0.001043 0.000464 -0.002706 -0.001758 0.002756 -0.003574 0.004901 0.000480 0.000678 -0.000115 0.001732 0.003013 0.000250 0.003202 0.002330 -0.001729
claim -0.001685 -0.001693 -0.003587 -0.001833 0.000643 0.000032 0.000963 -0.003964 0.000108 -0.001125 0.001344 -0.001433 -0.004127 -0.004418 0.001210 -0.000562 -0.003476 0.002815 -0.004638 -0.004911 -0.003500 -0.004506 -0.004871 -0.002747 0.001854 -0.000032 -0.000961 -0.001261 0.004104 -0.000850 0.002559 -0.001380 0.004612 0.002476 0.003751 0.004928 0.004837 0.004465 0.003957 0.003361 -0.004111 -0.004428 0.002371 0.004177 0.000348 -0.000834 -0.002147 0.001378 0.003067 -0.000421 -0.004713 -0.003667 0.004687 0.000893 -0.003044 -0.001746 0.002398 -0.001144 0.003000 -0.001918 0.000316 -0.003950 -0.002306 0.000880 -0.000206 0.004668 -0.002136 0.000602 0.004469 0.004242 0.001060 0.002885 0.003861 0.004875 0.003337 -0.000002 -0.002064 -0.000145 0.002352 -0.003147 -0.002217 0.002388 -0.002476 -0.004293 -0.002176 0.002200 -0.004450 0.001830 0.004205 0.003989 -0.004157 0.003432 -0.000995 -0.001521 0.004621 0.000273 0.003975 -0.003604 -0.001598 -0.003124
operations -0.001672 -0.004322 0.004528 -0.001511 -0.000244 -0.003024 -0.001926 -0.002480 -0.003094 0.003144 -0.001531 0.004103 -0.001840 0.003467 -0.001281 0.002114 0.001729 -0.001609 0.001785 0.000214 -0.002082 0.002834 -0.004167 -0.004294 0.004527 0.003119 0.004905 0.000028 0.003705 0.003223 -0.001610 -0.003693 0.004731 -0.002967 0.002558 -0.000152 0.001454 0.000819 -0.000294 0.001593 0.000378 0.004369 -0.003561 0.004434 -0.003490 0.002685 -0.000806 -0.001599 0.003598 0.000215 0.002142 -0.002649 -0.000360 -0.001392 0.003549 -0.004377 0.004274 0.000822 0.002823 0.002801 -0.002280 -0.003045 -0.000940 0.004988 -0.002668 -0.002656 0.000323 0.002483 -0.003752 0.003323 0.001103 0.003045 -0.004772 0.001691 0.004689 0.004818 0.004183 0.000153 0.002401 0.000294 0.000390 0.002862 -0.000463 0.000390 -0.004522 -0.000120 -0.003693 0.004249 0.000024 0.003214 0.001271 0.000096 0.002672 0.000183 -0.000110 -0.003307 0.003232 0.000860 -0.001807 0.000396
program 0.002118 -0.001256 -0.000408 0.003236 0.001917 0.002421 -0.000248 0.001066 -0.000230 0.003799 -0.002520 -0.004870 0.002035 -0.000081 -0.001756 -0.001930 -0.002886 -0.001201 -0.001951 -0.003030 0.003786 0.004703 0.002332 -0.001630 -0.004921 0.004894 -0.002343 0.002877 -0.001726 0.003988 -0.002195 0.000967 0.001602 -0.003619 0.002066 -0.003610 0.000049 -0.004987 -0.000699 0.000239 -0.002500 -0.003551 -0.004492 -0.004999 0.001609 -0.004992 -0.004845 -0.000375 -0.004743 -0.001977 0.004452 -0.002819 -0.003331 0.003649 -0.004582 -0.002211 -0.002655 0.002459 -0.004639 -0.004283 0.004905 -0.004733 -0.004150 -0.004393 -0.002487 0.004723 0.003833 -0.002176 0.001031 -0.004391 -0.001360 -0.002003 -0.000227 0.004830 -0.003916 -0.000552 0.003051 0.004581 -0.003308 0.003451 0.001035 -0.003760 0.001273 0.001778 0.004424 -0.003207 0.000369 -0.004374 0.003995 -0.002576 0.002803 0.000868 -0.002793 0.002503 0.001066 0.002298 -0.004420 -0.001471 -0.002020 0.000244
public -0.000892 -0.001720 0.000239 0.002432 -0.001605 -0.002510 0.002934 -0.002625 0.001129 -0.002852 0.000797 -0.003472 0.004221 0.000794 -0.003625 0.000469 0.003241 -0.004954 -0.003726 -0.004718 0.000626 0.003236 -0.002881 0.001853 -0.002038 0.001193 0.001620 -0.003293 0.003726 0.001251 0.001980 0.002451 0.002225 0.000152 -0.000386 0.000957 -0.001501 0.003985 -0.003513 0.004470 -0.000822 -0.004949 0.000021 0.003789 0.003656 0.004546 -0.003804 -0.002814 -0.003484 -0.003199 0.003025 -0.001655 0.004459 -0.004137 -0.004428 0.000663 0.000429 0.004277 -0.003862 -0.001129 -0.001647 0.004827 -0.003931 -0.001075 -0.003946 -0.004788 -0.002620 -0.003722 -0.002437 0.002623 0.002333 -0.004113 0.001524 0.001341 0.000218 0.002166 -0.004367 -0.003334 0.000579 0.001179 0.002878 0.003243 0.000197 -0.003971 0.003321 -0.004904 0.002681 -0.004848 -0.001990 -0.001015 -0.003245 -0.004720 0.004087 0.001656 0.003258 0.003557 0.001345 -0.002481 0.002134 -0.001120
oil 0.001919 0.001599 0.004690 0.001833 -0.002250 -0.004541 0.000983 0.003232 0.000668 0.001489 0.001047 -0.002179 0.000582 0.004422 0.003019 0.004105 -0.003201 -0.002175 -0.000826 0.004031 0.003087 -0.003889 0.001868 0.000304 -0.003136 0.002192 0.001791 -0.001390 -0.002258 0.004969 -0.003726 -0.001457 -0.002559 0.002602 0.004675 0.002631 0.004078 0.002699 -0.003754 0.001324 0.002236 0.004961 0.003962 -0.004088 0.004961 -0.001495 0.003001 0.004926 0.000539 -0.003125 -0.000915 0.002530 -0.000752 -0.000882 -0.004646 -0.000195 -0.002228 -0.000896 -0.001563 -0.003136 0.003198 -0.002250 -0.003309 0.004162 -0.004454 -0.001175 0.004058 0.002516 0.004496 0.004848 -0.004137 0.003672 -0.003958 -0.002702 -0.004113 0.002927 -0.001859 -0.003870 -0.003839 -0.000383 0.000450 -0.003603 0.004888 0.002819 0.002832 0.000610 -0.002152 0.002802 -0.000681 -0.004512 -0.002350 -0.004381 0.002498 0.001563 0.001100 0.000396 0.002701 -0.004979 0.002067 -0.002192
mineral 0.001934 -0.001079 -0.002728 0.001914 0.001928 -0.000836 -0.003795 -0.004149 -0.000088 -0.004221 0.001770 0.002320 0.001355 -0.004865 0.003392 0.003561 -0.001413 -0.003335 -0.000833 0.001782 -0.001431 0.003197 0.000523 0.003966 -0.001885 0.000238 0.000662 0.004965 -0.003489 -0.000530 -0.001879 -0.000025 -0.000696 0.003426 -0.001264 0.001979 -0.003375 -0.003761 0.003987 0.000020 0.001540 0.000194 0.001720 0.001906 0.001709 -0.002792 -0.000412 -0.002929 -0.004755 0.000623 0.001598 -0.002792 -0.002351 0.000280 0.001725 -0.003491 0.002731 -0.000807 -0.004044 0.002441 -0.003609 0.000167 0.004437 -0.004871 -0.003413 0.004906 0.002179 -0.001843 0.004507 0.000619 -0.000482 -0.003078 -0.003784 -0.002790 0.000757 -0.003399 0.002061 0.001034 0.003794 0.004319 -0.002745 -0.002655 -0.000808 -0.002862 -0.003467 0.000748 -0.000946 -0.002853 -0.004909 -0.001695 0.002647 0.001959 0.000665 -0.001815 0.000191 0.000054 0.002076 -0.000608 0.004705 -0.001836
order 0.001098 0.002811 -0.002203 0.004023 -0.001338 0.002975 0.002712 0.001351 0.003733 0.000707 -0.001924 0.001614 0.001761 0.004967 0.001127 0.001332 -0.003499 -0.000972 -0.004198 0.004399 -0.000095 0.000063 -0.001179 0.003828 -0.003604 0.001632 -0.003048 -0.004608 -0.004750 0.001940 0.001045 -0.003466 -0.003956 -0.004076 -0.000308 -0.002128 -0.003423 -0.002437 0.001755 0.001737 0.000682 -0.002653 -0.002551 0.002651 -0.001300 0.000675 -0.003503 -0.004866 0.001172 -0.002677 -0.002250 -0.002594 -0.003007 0.003593 -0.001952 -0.002498 -0.002609 -0.002597 0.001110 0.001103 0.000480 -0.003879 -0.000437 -0.002430 -0.002891 0.004624 0.002382 -0.002273 0.003996 0.004883 -0.004638 0.002385 0.004940 0.002254 -0.002235 -0.001359 -0.001853 0.004017 -0.000405 0.004291 -0.000725 0.002614 0.000357 0.003103 0.002759 -0.004117 0.002485 -0.004877 0.004609 0.004504 -0.002316 0.000134 -0.003403 -0.002842 0.004488 -0.000005 -0.003246 0.003336 0.003014 0.002330
notice 0.002160 0.001633 -0.000357 0.003178 0.000077 -0.004192 0.001790 -0.004526 0.000596 0.001332 0.000725 0.003024 0.003869 0.000301 -0.001012 0.004637 0.000977 0.004361 -0.004723 -0.001744 -0.004738 -0.004375 -0.003301 0.002697 0.001341 0.004062 0.000394 -0.004009 0.000517 0.001108 -0.002358 -0.001308 0.003530 -0.004766 -0.001281 0.001793 0.004586 -0.004678 -0.002958 0.001610 -0.003269 -0.003729 -0.003043 -0.000054 0.001013 0.004939 -0.003772 -0.002581 0.004964 0.001049 -0.003255 0.000782 -0.001306 -0.002294 0.003560 -0.004634 -0.003636 -0.001842 0.003946 0.002566 -0.004093 -0.003446 0.000101 0.000753 -0.004178 -0.000704 0.000276 -0.004227 -0.002354 -0.002292 -0.004623 -0.003239 0.002969 -0.004417 -0.002009 0.001571 0.004794 0.000336 0.001015 0.003445 0.004797 0.001278 -0.000877 0.002388 0.004512 0.000526 -0.004775 0.000325 0.001587 0.000221 -0.001660 0.002060 -0.001148 -0.002384 0.003264 0.000009 0.002316 0.004505 0.000696 -0.004123
subchapter -0.002318 -0.004351 -0.000392 0.003134 0.000800 0.001992 0.002216 0.001218 -0.002657 -0.003544 0.002310 0.003155 -0.001746 0.000445 0.000809 0.003925 -0.001994 0.004276 -0.000257 -0.002484 0.002273 0.004956 -0.001806 -0.002582 -0.002160 0.002414 0.002842 0.003092 -0.000250 -0.000517 -0.002284 0.004083 0.000008 0.000766 -0.004807 -0.001454 0.003792 -0.002145 0.002708 -0.004791 -0.004041 -0.000463 -0.003801 0.002125 -0.003791 -0.001263 -0.001918 0.002215 -0.000558 -0.001443 0.000307 -0.000870 -0.001590 0.001087 0.000560 -0.000375 0.004570 0.000939 -0.000340 0.000671 -0.002837 0.002560 -0.000267 -0.002959 0.004622 -0.003989 0.000047 -0.001362 -0.001568 0.004895 0.002509 -0.000316 -0.002161 0.003110 -0.002477 -0.000248 0.001532 0.000547 0.001206 -0.002301 -0.002626 0.003249 -0.004755 -0.004318 0.000533 -0.004798 -0.001442 0.002076 0.001123 -0.000383 -0.003378 0.003275 0.003989 0.004969 -0.001636 -0.001759 0.004128 -0.004687 0.003180 0.001702
resources 0.002040 0.003801 -0.004099 -0.002247 -0.002819 0.004623 0.002211 0.004009 -0.001914 -0.002539 0.003969 -0.004085 0.002770 0.004294 0.004740 -0.004582 -0.004351 -0.004086 0.002515 -0.000088 0.001949 -0.003973 0.003287 -0.000661 -0.001324 0.000527 0.001834 0.004197 -0.003255 -0.001126 0.004528 0.000658 -0.004685 -0.002307 -0.002248 -0.002271 0.001194 0.002298 -0.002169 0.003432 0.002749 0.002714 -0.001364 -0.003129 -0.003674 -0.004107 0.003345 -0.002124 -0.003123 -0.000887 0.004596 0.000426 0.003048 -0.001662 -0.002660 -0.002733 -0.000711 0.000090 -0.004631 -0.004153 0.001410 -0.003937 -0.004075 0.003292 0.000698 -0.004976 0.003698 0.002330 -0.000364 -0.004375 -0.003590 -0.000925 0.004668 0.002746 0.002449 -0.001515 0.000556 0.004903 -0.003162 -0.002500 0.000129 -0.003120 0.001835 -0.004416 -0.000438 -0.003521 0.003935 -0.003500 -0.000120 -0.004246 0.001084 -0.000236 0.002501 0.003168 0.002847 -0.000699 0.000018 -0.004268 -0.004577 -0.002327
interest -0.002258 0.000245 -0.004440 -0.000347 -0.000811 -0.000490 -0.003604 0.003798 0.001537 -0.002652 0.000608 -0.004036 0.000864 -0.004496 -0.000830 -0.002105 0.002729 0.004647 0.001875 0.001988 0.004175 -0.000742 -0.001124 0.004594 0.002087 0.004721 -0.002266 0.003823 -0.000656 -0.004452 -0.003618 0.000147 0.000526 0.001893 -0.000217 0.000617 0.002580 -0.001553 0.000771 -0.004744 0.003405 -0.001304 0.002629 0.002693 -0.004156 0.002802 0.001804 -0.003274 0.000922 0.004444 0.001528 -0.004156 -0.003647 -0.001851 0.002196 -0.003812 -0.004131 0.000094 0.003237 -0.003273 -0.003324 0.001593 0.002836 -0.004267 0.003124 0.001525 0.004524 0.001652 -0.004241 -0.001118 0.001779 0.004260 0.004637 0.000717 0.002308 0.001584 -0.001333 0.004370 -0.002818 -0.001026 -0.001019 -0.002560 -0.001548 -0.004399 -0.004478 0.004844 0.004102 0.004897 -0.004179 -0.000712 0.002981 -0.002520 0.004098 -0.003329 0.003675 -0.000885 -0.001945 -0.001708 0.003178 0.001881
operator -0.004588 -0.004762 0.000666 0.003922 0.004148 0.000328 0.002851 -0.000161 -0.001673 -0.000602 0.004081 -0.002815 -0.004487 -0.002375 0.000174 0.002570 -0.002626 -0.003948 0.003613 -0.001349 0.002776 0.004618 0.000644 0.004524 -0.001599 -0.000579 -0.002937 -0.002984 -0.001423 0.000624 0.003336 0.001117 0.003026 -0.000199 0.003085 -0.004188 -0.003306 0.002767 0.001203 -0.000192 -0.003958 0.004954 -0.002368 0.004319 0.003287 -0.004889 -0.001574 -0.002784 -0.000775 0.003576 -0.000165 0.003688 0.004185 0.001731 0.000368 0.004114 -0.004536 0.001592 -0.004875 -0.003053 -0.000063 0.000979 0.003570 -0.004082 0.001302 -0.003175 -0.003604 -0.001996 0.003854 0.003038 0.002121 -0.004065 -0.003197 -0.001907 -0.001305 -0.001584 -0.004989 -0.002786 -0.002091 0.000621 -0.003531 0.003204 -0.004511 0.002197 0.000380 0.000973 0.000979 -0.002430 0.003105 -0.004852 -0.001520 0.003824 0.002667 -0.002634 0.004828 -0.002496 -0.001535 0.001804 0.002702 0.003248
date -0.002653 -0.000030 0.000250 -0.002483 -0.000288 -0.001857 0.002432 -0.002532 -0.002846 0.003559 0.004625 -0.000502 -0.002516 -0.001005 0.004909 0.000421 0.003791 0.004144 -0.001944 0.004480 -0.001532 0.000025 -0.002704 -0.002891 0.002386 0.001511 -0.000273 0.004609 0.001487 0.001139 0.000713 0.000454 -0.002022 -0.002989 0.002781 0.000028 0.003884 0.000490 0.000386 -0.004571 0.002308 0.000781 -0.000925 0.002933 0.004780 0.001447 -0.004519 -0.002701 0.003310 0.004181 0.004648 0.004703 0.003851 0.001672 0.000266 -0.001235 0.000437 0.002326 0.003134 0.004386 0.001680 -0.004147 -0.004252 0.001817 0.001417 0.004829 -0.004821 0.003662 -0.004618 -0.004024 -0.000165 -0.001032 -0.003722 -0.004235 0.001476 0.001211 0.003054 0.000731 -0.004697 0.004429 -0.001483 0.002773 -0.000231 0.002421 -0.000830 -0.000403 0.004216 -0.003812 -0.001129 0.000459 -0.003352 0.002880 0.003178 0.003150 0.004952 -0.003314 0.000593 -0.003658 -0.004089 0.001033
application 0.004841 -0.000873 0.004903 0.003084 0.002982 -0.000835 -0.003980 -0.001038 -0.002386 -0.004898 -0.002435 0.001473 -0.000841 -0.003943 0.001998 -0.002724 0.003042 -0.002372 -0.001433 -0.003974 0.002524 0.002528 -0.001323 0.003208 -0.002013 0.001067 0.001801 -0.001635 -0.003105 0.003729 0.004386 0.002617 0.001626 -0.000149 0.000739 0.000717 0.000988 -0.001985 -0.004940 -0.003069 0.000757 0.002954 -0.004742 -0.004539 -0.000143 -0.000869 0.000492 0.000617 0.001376 0.004268 -0.002437 -0.000594 0.004042 -0.002617 0.002887 0.000063 -0.001574 -0.002033 -0.003105 0.002387 0.002920 -0.001480 -0.001623 0.003583 -0.000319 0.002259 -0.001038 0.001529 0.001294 -0.001985 0.003357 -0.003630 0.003233 -0.002957 0.002227 -0.002524 0.001571 0.001310 -0.003469 -0.000767 -0.002277 0.000697 0.003201 0.000423 0.001981 -0.004607 0.004399 0.004844 0.004938 -0.000623 -0.002030 -0.001149 -0.000031 0.002778 0.003774 0.000399 -0.001806 0.004273 -0.001890 -0.002551
health -0.000160 -0.003101 0.001390 -0.001863 0.003157 -0.000885 0.001539 0.003804 0.001365 -0.002888 0.002970 0.002173 0.000636 0.000560 0.004810 0.001884 0.000556 -0.002650 -0.001998 -0.000186 0.000416 -0.001652 0.004683 0.004113 -0.004305 0.003623 0.004812 0.003927 0.002011 0.002275 -0.003812 -0.002546 -0.000140 -0.001623 -0.004704 -0.002179 -0.004915 0.003771 0.002555 -0.003801 -0.001904 0.004991 0.001595 0.000935 0.003016 0.001144 0.003551 0.002993 0.002139 -0.001880 0.004035 0.003081 -0.004840 0.003668 0.002601 -0.003292 0.001310 -0.002742 -0.004445 0.004855 0.004599 0.000699 -0.002612 0.000059 -0.000562 -0.001918 -0.004267 0.001827 0.003502 0.001918 0.001419 0.004454 0.002629 -0.003545 0.003228 -0.002727 0.002867 0.003417 0.000250 0.001725 0.000430 -0.000052 -0.004841 0.004165 -0.001896 0.002869 0.003277 -0.003805 -0.004380 0.002191 0.004352 -0.001120 0.003908 0.003200 -0.002721 0.002740 0.003420 0.001683 0.002346 -0.002383
time 0.003770 -0.001478 0.001191 -0.003409 0.001964 -0.004107 -0.003826 -0.002169 -0.002690 0.002196 0.004074 0.000006 -0.002294 0.003922 -0.001414 -0.000216 0.000741 -0.002841 0.002911 -0.002446 -0.004923 0.001743 -0.004511 0.001381 -0.004420 0.002502 0.002504 -0.004482 -0.001628 -0.001687 -0.001970 -0.004358 0.002035 0.002277 0.004000 -0.004120 0.004581 -0.004656 0.002875 0.003685 0.003481 -0.003494 0.001400 -0.001242 0.002725 -0.003391 0.002959 0.000836 0.003145 0.004625 -0.002632 -0.000367 0.003462 -0.004312 -0.002682 0.002856 0.004860 0.000014 -0.002643 -0.003507 -0.004841 0.001273 0.001260 -0.003933 -0.002988 0.000574 0.004050 0.004544 -0.004193 -0.003294 -0.002858 -0.002003 0.001983 -0.001555 0.002004 -0.001977 0.004129 0.004180 0.000545 0.000757 -0.000578 -0.003323 0.001612 -0.001377 0.002499 0.002749 -0.004522 -0.000044 0.004949 0.000924 -0.000956 0.003210 -0.002601 -0.000760 0.000715 -0.000658 0.004052 0.000245 -0.004988 -0.001645
period -0.001103 -0.004362 0.002946 -0.003423 -0.004220 -0.001383 0.001188 0.001188 -0.000713 0.000041 0.000631 0.001470 0.000206 0.004906 0.004249 0.001235 -0.002327 0.004757 0.000616 0.001413 0.004860 0.001728 -0.000127 -0.002050 -0.001068 0.003969 0.001281 0.003259 0.001862 -0.004127 0.003538 -0.001835 0.003488 0.003678 0.002873 0.002869 0.003223 -0.004122 0.004794 0.001791 0.004017 -0.004319 -0.004683 -0.003577 -0.002815 -0.003840 0.002856 -0.003997 -0.003023 0.001589 -0.001455 -0.000829 0.000788 -0.000327 -0.002515 0.000823 0.000180 0.004082 0.003039 0.004849 0.000558 0.004985 0.001008 0.001869 0.001087 0.004866 0.002875 -0.002518 -0.000304 -0.004820 0.004376 0.004508 0.002036 0.003707 0.000928 -0.000887 0.002408 -0.001151 -0.003486 0.004682 0.004060 -0.003449 -0.001869 -0.004628 0.004432 0.001590 0.003292 0.000222 0.001634 0.004941 -0.000558 -0.004577 0.001736 -0.002453 -0.002944 0.003926 -0.000094 0.004325 -0.003177 0.004048
safety -0.002143 0.001949 -0.001184 -0.002468 -0.003011 -0.003305 0.004982 0.001469 0.003308 -0.001266 -0.000136 0.002049 -0.000897 0.004291 0.004919 0.003520 -0.000320 0.000941 0.002618 0.000076 0.001085 0.002954 -0.004434 0.003740 0.003354 -0.001729 0.004081 0.003646 0.003599 0.004135 -0.001978 0.001130 0.004793 0.003970 0.004332 -0.001091 0.004295 0.002876 -0.002177 -0.003352 0.001628 0.003853 0.000357 0.002543 0.004566 -0.004205 0.004036 0.004036 0.004685 0.001392 0.003022 0.003510 0.001370 -0.003484 -0.002375 -0.001227 0.002451 0.002256 -0.004555 -0.004643 0.004935 0.003596 0.000118 -0.004653 -0.001360 0.003978 0.001121 0.004975 0.003022 -0.004874 0.002678 -0.000334 -0.004330 -0.004916 0.002515 0.003366 0.004900 0.000584 0.002230 -0.000626 -0.000656 -0.000364 -0.003338 -0.003686 -0.000510 0.000993 -0.001526 0.004545 -0.000609 -0.001579 -0.001737 0.003377 0.002195 -0.003442 -0.001156 -0.001730 0.003805 0.000004 0.000381 -0.001345
necessary 0.002000 -0.002366 0.002288 -0.000110 0.002746 0.001563 0.000637 -0.001424 -0.003115 0.000441 -0.004581 -0.000581 0.004156 0.002092 0.001988 0.000518 -0.003338 0.004061 -0.001462 0.004727 -0.002843 -0.001551 0.000926 0.000398 -0.003859 -0.000879 0.001660 -0.002647 -0.000871 -0.000963 -0.004474 -0.003606 -0.004218 0.002622 0.004786 0.004696 -0.002785 0.003179 -0.001204 -0.003639 0.004542 -0.001774 0.004591 -0.003902 0.003635 0.001438 0.004911 0.004753 -0.003073 -0.004475 -0.002652 0.004410 0.002251 -0.001624 -0.003907 0.000084 0.000681 0.003682 0.001601 -0.002798 -0.000798 -0.001890 0.004650 -0.000329 -0.000125 -0.002311 0.000601 -0.003795 -0.002447 0.003870 -0.000809 0.000750 -0.002487 -0.003451 -0.001729 0.002519 -0.004665 0.003986 0.001868 0.001495 0.000707 -0.004033 -0.000916 -0.001096 -0.000210 0.004429 0.001139 -0.004603 -0.000847 0.001388 -0.003111 0.001817 0.000820 0.003921 -0.004071 0.003478 -0.001029 -0.004773 0.003223 -0.004810
authority -0.002521 0.001196 -0.001483 0.004250 0.002185 0.000257 -0.000103 0.004646 -0.003427 0.003646 0.000121 -0.004385 -0.003323 0.002990 0.002031 -0.001755 -0.003369 0.003093 -0.002181 0.001947 0.000957 -0.004624 0.000862 -0.002764 0.004015 -0.004008 0.000162 -0.004799 -0.002186 0.001390 0.001157 0.004284 0.002264 -0.000922 0.004467 -0.000320 0.003659 -0.001773 0.003049 -0.001171 -0.000850 0.003199 0.001267 0.001926 0.001494 0.003040 -0.003948 0.004774 -0.002394 0.003909 0.001961 -0.003470 -0.000023 0.000157 -0.003456 -0.004755 0.004777 0.000712 0.000423 -0.003226 -0.001846 -0.001060 0.001614 0.000661 -0.002654 -0.000649 -0.003626 -0.004533 -0.004025 0.004808 0.004803 -0.000663 0.001354 -0.003267 0.002529 -0.001635 0.001623 0.002038 -0.001445 0.003314 -0.001359 -0.002649 -0.003424 0.004136 -0.004305 -0.003679 -0.000383 0.004564 -0.004624 0.003472 -0.002052 -0.001858 0.004610 0.002472 0.002112 0.000459 0.003701 0.001301 -0.001096 -0.000155
year -0.002856 0.004109 0.000311 0.002684 0.001881 -0.002940 -0.003362 0.001900 -0.004137 0.002031 0.004871 -0.004073 -0.001678 0.002700 0.003303 0.001663 0.000419 -0.004213 -0.000759 -0.001360 0.001811 -0.002318 0.002769 -0.000535 0.000245 0.004336 -0.004442 0.001538 0.002895 -0.002484 0.003587 -0.000252 -0.004510 -0.000684 -0.004201 0.001397 -0.003289 0.002984 -0.003417 -0.001944 -0.003481 0.004714 -0.002682 -0.003295 -0.001197 0.002014 -0.003077 -0.001774 0.002187 0.001616 -0.003174 -0.000128 -0.004894 0.002481 0.001906 -0.002804 0.000865 0.000993 0.001869 0.001685 -0.003315 -0.004668 -0.001796 -0.002495 0.002041 -0.004972 0.001711 0.000800 0.000783 -0.004155 0.004896 0.002514 -0.001891 -0.002643 0.003024 0.003527 -0.004411 -0.001271 -0.003845 0.000734 -0.000443 -0.002095 -0.001083 0.000065 0.000052 0.000955 -0.000436 -0.003061 -0.000427 0.004109 0.000879 -0.000410 0.002713 0.001000 0.003539 0.001841 -0.004840 0.001541 -0.004996 -0.002612
regulations -0.003983 -0.000765 -0.001158 0.001292 0.001988 0.003997 -0.003574 -0.003901 -0.003656 -0.002129 0.001559 0.002522 -0.004297 0.001538 -0.003222 -0.002320 -0.000317 0.000009 0.004083 -0.001927 0.003708 -0.000776 -0.002628 0.002934 0.004707 0.004004 0.001951 0.002377 0.003349 0.004179 -0.001132 -0.002143 -0.000251 -0.001682 -0.001935 0.003674 -0.000178 0.004214 -0.004936 -0.000503 0.002059 0.002096 0.004597 0.002234 0.001538 0.003713 -0.003951 0.001219 0.001976 0.004399 -0.001308 0.003055 0.002355 0.000281 -0.001232 -0.004922 0.004079 0.004128 0.000461 0.001774 0.004287 0.003051 -0.002927 -0.001143 0.002121 -0.000458 -0.001632 -0.000736 0.002122 -0.003607 -0.001956 -0.000324 -0.004829 0.001305 -0.002600 0.000294 -0.003453 -0.000372 0.001647 0.000558 0.002592 0.004630 0.002477 0.004061 -0.004660 -0.003084 0.003001 0.004397 -0.002816 -0.004120 -0.001908 -0.004122 -0.002072 0.001288 -0.003410 0.000380 -0.002901 -0.000246 -0.002893 0.000595
stat -0.003402 0.001666 -0.002684 0.004819 -0.000189 -0.002869 0.001230 -0.002004 0.001877 0.002160 -0.002129 0.000724 -0.000656 0.002932 -0.004468 0.000948 0.000095 -0.000517 0.000062 0.003425 0.000976 0.001795 -0.001557 0.003563 -0.003015 -0.003369 0.004405 0.001154 -0.004519 -0.002661 0.004377 -0.003968 0.003708 -0.000145 0.000489 0.002185 0.004345 0.002656 0.003571 0.001745 -0.003070 -0.002751 -0.000927 0.004389 -0.001160 -0.001741 0.003436 0.001567 0.002826 0.004223 -0.000430 -0.002441 0.001918 0.001812 0.002773 0.000846 -0.000136 -0.000688 -0.003421 0.004263 -0.000063 0.002942 -0.002689 -0.002380 -0.002127 -0.000639 -0.003922 0.003034 -0.003031 0.001049 0.004897 0.000626 0.003139 -0.004305 -0.002270 0.001636 -0.000418 -0.001264 0.001074 -0.003241 0.000237 -0.001271 -0.003849 0.003941 -0.000204 0.003836 0.000577 0.001661 -0.002802 -0.004727 0.004902 -0.004220 0.003939 -0.002615 -0.000302 -0.004779 0.000554 -0.004002 -0.000869 0.004186
required 0.000904 0.004888 0.001149 -0.003029 0.003123 -0.003804 0.000691 0.001413 -0.004856 0.002943 -0.002465 -0.003817 0.002153 -0.004604 -0.000277 0.000843 0.004570 -0.000898 0.001344 0.000340 0.000982 -0.003266 -0.000928 0.003527 -0.002508 0.004374 0.001803 0.004753 0.004247 -0.003601 0.003446 -0.000663 0.000751 0.001695 -0.001271 0.002932 -0.001978 -0.003248 -0.004104 -0.001010 -0.001781 0.003286 -0.003069 0.000010 -0.000912 0.001645 0.004750 -0.001230 0.003685 -0.003608 0.002944 0.004464 0.000518 0.004622 -0.003259 -0.002087 0.003859 0.004830 0.003846 0.004813 -0.004076 -0.000796 0.003215 0.002108 0.003229 0.000069 -0.001695 -0.000426 -0.004004 0.000992 -0.004579 -0.002902 -0.004975 -0.000019 0.000709 -0.003147 0.003884 -0.002434 0.002137 0.001288 -0.000396 0.002023 -0.002009 -0.003983 -0.000687 0.002408 -0.003269 -0.003867 -0.004525 0.003013 -0.001126 0.001752 0.003565 -0.003363 0.002753 -0.003706 -0.003208 0.003691 -0.004547 0.001133
interior -0.004493 0.001187 0.003146 -0.004353 -0.003052 -0.001500 0.001012 0.003777 -0.002005 -0.003448 0.002962 -0.001031 0.003207 0.004117 0.003459 -0.001775 -0.003268 -0.001802 -0.002384 -0.001493 -0.004195 0.001593 -0.001015 -0.004588 -0.001790 -0.003797 -0.001092 -0.000294 0.003405 0.002412 0.000613 -0.002363 0.002559 0.003804 0.002653 -0.003664 -0.002862 0.001937 0.001283 -0.000899 0.004277 0.000542 -0.000291 -0.001463 -0.000153 0.003190 -0.002081 -0.003110 0.001817 0.003806 -0.003477 -0.003929 0.000837 -0.002883 -0.002889 -0.002827 -0.004173 0.004394 0.003086 -0.003844 0.001987 0.003742 0.004972 0.003872 0.004051 0.000743 0.002427 0.001450 0.000314 -0.003953 0.000170 -0.003595 -0.004971 -0.004198 -0.001204 0.002473 -0.003870 -0.001650 0.003327 -0.004499 0.000434 -0.003320 0.000343 0.001554 -0.000609 0.004119 -0.002267 -0.003799 -0.000347 -0.002977 -0.000484 -0.002540 0.002464 0.000009 0.003139 0.004811 -0.000853 0.003023 -0.001199 -0.000855
use -0.002200 0.001969 -0.003075 -0.004281 0.003335 -0.003307 -0.003350 0.002081 -0.002592 -0.003940 0.000668 0.000373 -0.000291 0.003603 -0.002097 -0.000107 0.003200 0.004322 0.004165 -0.003751 -0.003884 0.002600 -0.004606 0.002393 -0.000570 0.001266 0.004077 -0.002590 0.003668 0.002482 -0.001809 0.001943 -0.002096 -0.002742 -0.004542 -0.000829 -0.003282 -0.001469 0.002552 -0.000441 -0.004777 0.002240 0.000588 0.003042 -0.002586 0.004735 -0.003922 -0.001583 -0.000560 -0.002950 -0.002351 0.002451 0.000731 -0.004669 -0.002857 -0.003176 0.002428 -0.003997 0.003418 -0.000751 -0.001945 0.001814 -0.004851 -0.003103 -0.002321 -0.004532 -0.000503 0.001705 -0.000476 -0.003826 -0.002619 0.000175 -0.001861 0.004374 -0.003100 -0.004448 -0.004804 -0.002284 -0.004846 0.003826 0.001213 0.001884 0.001283 0.004338 -0.000041 -0.004764 -0.002645 0.000857 -0.001495 0.000865 -0.000961 -0.004740 -0.003320 0.004536 0.001458 0.000044 -0.004473 -0.004894 -0.001600 -0.003953
law -0.003516 0.004014 0.000583 0.002404 -0.003494 0.001255 0.000050 -0.002515 -0.003258 -0.004874 -0.001771 -0.000783 0.002148 0.002155 0.001751 -0.001119 -0.002647 0.003460 0.003145 0.002513 0.002206 0.001954 -0.003156 0.001298 -0.000834 -0.002801 -0.003112 0.004814 0.002662 0.001807 0.001116 0.001017 0.001689 0.002792 -0.003368 0.004950 -0.002251 -0.002316 -0.003767 -0.003318 0.003531 -0.004285 -0.001597 0.004120 -0.000160 0.004347 0.001474 0.000934 0.003792 0.003867 -0.000055 -0.001146 0.003493 0.000624 0.001173 0.000928 -0.004836 -0.004109 -0.001698 -0.001344 0.004207 0.002944 -0.004457 0.003940 0.000422 0.004277 -0.002702 -0.004921 -0.002953 -0.001302 -0.004338 0.000047 -0.003136 0.004439 0.001446 -0.003161 0.003653 0.004981 0.004376 0.002461 -0.000256 0.002468 0.000289 -0.002886 0.001990 -0.001778 -0.000420 -0.000628 0.001792 0.002920 0.003189 0.000819 0.002871 0.004698 -0.001439 -0.000667 -0.002871 0.004199 -0.003910 -0.003283
purposes -0.001492 0.001539 0.001109 0.000023 -0.001485 0.002535 -0.001812 -0.000533 -0.003592 -0.002582 0.002916 -0.001316 -0.004761 -0.004828 -0.004542 0.002484 -0.004989 0.002431 0.000005 0.004136 -0.000976 -0.003129 -0.003133 -0.004185 0.001577 -0.002096 0.002688 -0.004552 -0.001820 0.004842 0.003478 -0.002622 0.002242 -0.002861 0.003219 -0.002997 -0.004149 -0.000943 -0.003383 -0.004868 -0.003031 -0.000469 0.002743 -0.001894 0.003987 0.004536 -0.000243 0.003932 -0.003036 -0.003087 -0.004565 0.000106 0.004269 0.004724 0.001919 0.004786 0.004309 0.003865 0.001697 0.000693 -0.002339 0.001002 -0.002586 -0.004717 0.001220 0.002580 -0.002586 -0.003583 0.004679 -0.004102 -0.002046 0.002229 -0.001169 0.001606 0.000376 0.003887 -0.000860 0.001990 -0.001535 -0.003553 -0.004025 -0.004338 -0.003469 -0.003159 0.004904 -0.004196 0.000949 0.003723 0.004158 0.003817 0.001200 0.000023 -0.002746 -0.003920 -0.000246 -0.001258 -0.001604 0.001085 0.001614 -0.004253
paragraph 0.000719 -0.001236 -0.000042 0.000175 -0.004507 -0.001699 0.001524 -0.002024 0.003404 0.000507 0.004109 0.002476 0.003676 0.001238 0.002090 -0.002273 0.003446 0.003632 -0.003196 -0.004696 -0.003384 0.001768 -0.004980 -0.001107 -0.004671 0.001696 0.000389 0.002953 0.002580 -0.004334 0.002010 -0.002370 0.002339 0.000374 -0.003467 -0.003019 0.001260 -0.000635 -0.001066 -0.004728 0.004737 0.001902 0.002290 0.003593 -0.002879 -0.003082 -0.001650 -0.001373 -0.004168 0.003488 -0.003446 -0.004107 0.001286 0.001806 0.004622 0.003816 0.004088 -0.002741 -0.004868 0.000792 -0.000474 -0.001794 0.000951 0.003740 0.002117 0.002059 0.003361 0.004835 0.000141 0.001185 0.002532 0.001502 0.000149 0.004277 0.000414 0.004550 -0.002669 0.002383 0.000491 -0.000382 0.002721 -0.004889 0.000953 -0.004589 -0.004138 -0.003261 -0.004097 0.000880 -0.000585 -0.003975 0.003332 -0.004703 0.003460 0.002765 -0.004468 -0.000397 -0.003698 -0.003865 -0.001823 -0.004163
development 0.001327 0.003067 0.000450 0.004319 -0.001184 0.003512 -0.000057 -0.002833 0.003994 0.004253 0.003953 0.004196 -0.004826 -0.000998 -0.001418 0.001292 0.001359 0.004920 0.004908 0.002180 -0.002511 0.003446 0.001336 -0.001103 0.003362 -0.003140 0.004182 -0.004329 -0.002524 -0.001258 -0.002358 -0.000246 0.001752 -0.001449 -0.002186 -0.001427 0.002108 0.003329 -0.004180 0.002262 0.004596 0.004945 0.002345 0.002838 -0.000691 0.002957 0.003343 0.001471 0.004467 0.000258 -0.003328 0.004628 0.003300 -0.004288 0.004471 -0.004472 0.004368 -0.004409 0.001070 0.000893 -0.001611 -0.003593 -0.002813 0.002832 -0.001704 0.000782 0.003227 0.003462 -0.000455 0.000910 -0.002377 0.000693 0.004188 -0.004369 0.000720 0.003783 0.001121 0.002326 0.003472 0.002551 -0.003200 0.004852 -0.003159 0.002354 -0.003177 -0.002060 -0.004108 0.002520 0.002093 -0.002704 0.004807 -0.000312 -0.002845 -0.003454 0.001133 0.001395 -0.003415 0.003478 -0.000607 -0.004259
reclamation 0.004918 -0.000770 0.001445 -0.003390 -0.001369 0.001513 0.002314 -0.004169 0.002459 0.001855 0.001081 0.001810 -0.000123 0.003721 -0.001086 -0.002930 0.004450 -0.003495 -0.000315 0.003572 -0.004147 -0.004722 0.000791 0.004878 0.001479 -0.001313 -0.001652 -0.002001 0.004570 0.003474 0.003216 -0.000401 -0.000061 0.002651 -0.000496 0.000908 -0.003532 -0.004923 -0.004378 0.001330 0.003808 -0.002782 -0.001802 -0.003365 -0.000414 0.001619 0.002544 0.002096 0.000196 0.003906 0.001222 0.004971 0.004567 0.002563 -0.003275 0.001732 -0.004148 -0.003074 -0.002611 -0.003622 -0.002777 -0.004116 0.003979 -0.002478 0.002121 0.001900 0.000583 -0.001722 -0.001063 -0.004804 0.004143 0.001029 0.000222 0.003169 -0.004754 -0.001380 -0.004804 0.001450 0.001928 0.002855 0.001961 -0.004050 -0.000735 0.000500 -0.001793 -0.000528 0.001307 -0.003024 0.004411 -0.004263 -0.003455 -0.002507 0.000154 -0.000456 0.000529 -0.002468 -0.003458 0.004911 -0.001195 -0.004928
act -0.003465 -0.004623 -0.004961 0.000383 0.001414 -0.002411 0.001558 -0.001974 0.003881 -0.002494 -0.004370 -0.001002 0.004010 -0.001374 0.000940 -0.003389 0.003941 0.003568 0.003003 -0.003373 0.004979 -0.004355 -0.003232 0.002617 0.002156 0.003776 0.003610 -0.002977 -0.004491 -0.003034 -0.000839 0.004206 -0.002942 -0.001109 -0.001182 -0.000618 -0.003739 0.002997 0.004446 -0.002654 -0.001320 -0.003951 -0.003285 -0.000334 -0.004535 0.004715 -0.003504 -0.000770 -0.002445 0.004515 0.000736 -0.003820 -0.003590 -0.003592 -0.002622 -0.000810 -0.002365 -0.001884 0.002853 0.001901 -0.003066 0.002497 -0.002803 0.000992 0.003367 0.000853 -0.003769 -0.002510 0.001382 -0.002433 0.003742 0.002902 0.003194 -0.001243 0.001098 0.003908 -0.004962 -0.004540 0.004818 0.001850 0.000501 -0.000804 -0.004506 -0.001995 -0.001673 0.000865 0.003479 -0.003140 0.004566 -0.004045 -0.003707 -0.001595 0.003008 -0.004197 -0.002891 -0.000395 -0.004103 0.000936 0.002540 -0.000879
conditions 0.003354 0.004796 0.003755 -0.003971 -0.003866 0.000899 0.000661 -0.004558 0.003803 -0.003050 0.004494 0.000661 0.000833 0.002162 -0.002526 -0.002672 0.003299 -0.003834 0.001642 -0.001242 0.002755 -0.004313 0.002485 -0.003082 -0.001837 0.001320 0.002688 -0.004122 -0.003205 -0.004756 0.000456 0.002786 0.004877 -0.002969 0.002744 -0.003451 0.001281 0.004432 -0.000412 -0.002196 -0.000932 -0.004840 -0.002049 0.001645 -0.004051 0.001323 0.000934 -0.001305 0.004370 0.001375 0.002626 0.001177 -0.001937 -0.001531 0.003407 0.004630 0.003465 0.003666 0.000592 -0.000836 -0.004560 0.004001 0.001432 0.003691 -0.003411 0.002526 -0.001115 0.003440 0.000190 0.002950 -0.004508 -0.004133 -0.003122 0.004657 0.002830 -0.002523 -0.001583 0.003266 -0.000865 -0.001434 -0.002574 0.003153 -0.004935 0.000682 0.002459 -0.004822 -0.003600 -0.000927 0.001911 -0.003592 -0.003232 0.004636 -0.002563 -0.004623 0.004744 -0.004651 -0.002440 -0.003069 -0.000869 -0.003575
appropriate 0.002728 -0.000646 0.001277 0.003586 -0.001799 -0.003470 0.002995 -0.001710 -0.001900 -0.001457 -0.002942 0.003217 -0.004569 0.001676 -0.000965 -0.001067 0.002087 -0.002171 0.003380 -0.004036 -0.003158 0.003716 0.001648 0.000868 -0.000152 -0.000345 0.004259 -0.003524 -0.000619 0.004872 0.002079 0.001459 0.003818 0.001947 0.000115 0.003141 -0.002814 0.003301 -0.000526 0.003365 -0.001766 0.003556 -0.001717 0.004061 0.004376 0.002803 -0.002598 0.002514 -0.000234 0.001075 0.002348 -0.002555 0.004118 -0.003986 0.000729 -0.000687 -0.003576 -0.003057 -0.001849 0.002015 -0.001496 -0.003865 -0.004089 -0.002481 -0.001575 -0.000888 -0.001314 0.004870 -0.004801 -0.004086 -0.002273 0.000387 -0.001835 -0.000555 -0.000534 -0.001325 -0.001692 -0.004836 -0.003686 0.001663 -0.004891 -0.003010 0.001916 0.002480 0.004356 -0.004539 0.004487 0.000216 -0.004879 0.000390 0.000125 -0.000461 -0.003401 0.002966 -0.003717 -0.003740 0.002314 -0.000365 -0.004736 0.004333
area 0.003591 0.001046 0.003242 -0.004947 -0.001656 -0.003238 -0.003811 -0.000308 0.004914 -0.002607 -0.003581 0.000186 0.004214 0.001661 0.000068 -0.001089 -0.003731 -0.003322 -0.002194 -0.000337 0.004096 0.000635 0.000183 0.003012 -0.000918 0.001037 -0.003277 0.003309 -0.003356 0.003973 0.003152 0.000779 0.004987 -0.003892 0.004635 -0.001189 0.004095 0.002845 -0.002297 -0.002244 -0.002341 -0.003645 0.002691 0.004087 0.004534 0.000069 -0.002513 -0.002822 0.002077 -0.000549 -0.001685 0.003623 -0.003292 -0.000112 0.001832 -0.004534 -0.003956 0.000799 0.003575 -0.002641 -0.001799 0.000304 0.003388 0.004991 -0.004939 -0.003844 0.003581 0.001177 -0.004919 0.000888 -0.002076 0.004768 -0.004324 0.002490 0.002483 -0.002343 0.001321 0.004855 0.001491 0.001895 -0.001613 -0.003000 -0.003088 -0.002219 0.000474 0.001201 0.000376 0.004808 -0.003695 0.002657 -0.001544 -0.003694 -0.004114 -0.003393 -0.003270 0.002109 0.004408 -0.001792 -0.002374 0.003628
amount -0.000485 0.000854 0.004841 0.002885 -0.003807 0.004057 -0.001861 -0.004085 0.002040 0.004321 -0.002521 0.004319 -0.002815 0.002167 -0.001893 -0.004549 -0.002474 -0.000890 -0.000557 -0.001841 -0.001441 -0.002069 0.000363 0.004014 -0.004703 -0.002403 0.002997 -0.001267 0.002298 -0.002692 0.001795 0.001358 0.001966 0.004712 0.000557 0.000659 0.003796 0.004517 0.002221 -0.004276 0.001363 0.004777 0.003368 0.003599 -0.004797 0.001402 0.004217 0.004931 -0.000314 0.004947 -0.003439 -0.000941 -0.003135 0.001736 -0.003333 -0.000412 -0.003124 0.000141 -0.001138 -0.003174 0.004709 0.003558 0.002342 0.004533 -0.000173 0.000453 -0.001267 0.003840 0.004743 -0.004411 -0.001657 -0.003814 0.002518 -0.000661 0.001662 0.001654 -0.004040 0.003023 0.004956 -0.003360 -0.001994 0.001714 0.001274 0.002289 0.001310 0.003215 -0.001845 0.004631 0.002200 -0.001185 0.000708 0.000116 0.001785 0.000410 0.000492 0.001251 0.002677 0.003388 -0.001587 -0.004183
plan 0.002495 -0.003746 0.001673 -0.002600 -0.002720 -0.003266 -0.004286 -0.003833 0.001977 -0.003061 0.001774 0.001488 -0.003325 0.004781 -0.002600 -0.002480 0.000537 0.004946 0.000894 -0.004553 -0.004490 -0.001274 -0.001433 -0.001478 0.003744 0.003807 0.003377 -0.001447 0.003991 0.002166 -0.000255 -0.004055 -0.000282 0.002455 -0.002267 0.002614 -0.003992 -0.001899 0.001061 0.003340 0.000660 -0.003761 -0.003411 0.002534 -0.001299 -0.003968 -0.002193 -0.002963 0.001478 -0.001401 -0.001656 -0.000142 0.003585 -0.003762 0.002937 -0.002232 -0.000848 0.004412 0.003270 -0.002121 -0.000248 -0.001826 0.000538 -0.003155 -0.000214 -0.000523 -0.000352 -0.000596 0.002682 0.004349 0.001549 -0.000057 0.000694 0.000891 0.002431 -0.000662 -0.001219 -0.001404 0.002065 -0.004905 -0.004287 0.002455 -0.002911 0.004263 0.001791 0.004178 0.002840 0.004273 -0.001528 0.002157 -0.004017 -0.002654 0.002056 -0.003312 -0.002521 -0.002038 0.002066 0.003204 -0.003720 0.001402
except 0.004358 0.002753 -0.000767 0.002482 -0.000622 -0.001537 0.001425 0.000448 -0.001768 0.004465 0.001115 -0.000740 0.003412 -0.001792 0.000149 0.001528 -0.001352 0.000270 -0.000622 0.001243 0.003985 0.003693 -0.002816 0.001022 0.001551 0.001321 0.001766 0.000307 0.002391 0.001923 -0.004358 -0.004027 -0.002992 -0.004668 -0.004288 -0.002880 0.001356 0.003762 0.001061 0.002869 0.000615 -0.000893 -0.002360 -0.003677 -0.000088 -0.004500 0.000200 0.002908 0.004316 0.004119 -0.000289 -0.000562 -0.004659 0.000762 0.004332 -0.002891 -0.000757 0.000580 -0.001286 0.004796 -0.003456 -0.000521 -0.000388 -0.002892 -0.004606 -0.004669 -0.003322 0.002674 -0.001396 0.001638 0.003166 -0.004387 0.004321 0.000104 0.003480 0.001874 0.001723 0.000472 0.001930 -0.002639 0.003796 0.004132 0.000957 -0.004139 0.003149 0.003772 -0.000089 -0.004874 -0.003826 0.002146 -0.003534 0.003195 0.000591 0.002446 -0.001268 0.003402 0.002197 -0.002707 -0.002255 -0.004329
prior 0.001946 -0.004691 -0.000602 -0.002109 0.002874 -0.000126 -0.004226 0.002711 0.002670 -0.002833 0.002609 -0.004691 0.002203 0.003591 -0.000392 0.002308 0.002706 0.000681 0.004947 -0.002103 0.000616 0.001045 0.002218 -0.001303 -0.002962 -0.001255 -0.003499 -0.004658 0.004894 -0.003081 -0.003414 -0.002892 -0.002223 0.004861 -0.003700 -0.003385 -0.001864 -0.000453 -0.003724 -0.001071 0.003779 -0.000021 0.002365 -0.002193 -0.002100 -0.000501 0.000018 0.004668 0.003488 0.002690 -0.002195 0.000383 -0.000457 -0.000062 0.002291 0.004867 -0.002026 -0.002085 -0.000453 -0.001278 -0.002399 0.001288 -0.003619 0.001608 0.003979 -0.000393 0.003307 -0.004707 0.000868 -0.003538 0.003659 -0.001916 0.001224 -0.000189 0.003591 -0.000726 0.004982 -0.003317 0.003532 0.003683 0.002691 0.002858 -0.000530 -0.000598 0.003982 -0.001115 0.001538 -0.001321 0.004188 -0.002219 -0.000571 0.004441 -0.000694 0.002006 -0.001122 0.001732 -0.003649 -0.004666 -0.000223 0.002533
gas -0.002006 0.004561 0.002233 0.003858 0.002750 0.004619 -0.002825 0.001394 -0.002223 -0.000776 -0.000175 0.001661 0.001729 0.003652 0.003478 0.001687 0.003325 0.001001 0.001141 0.004933 -0.004866 0.000119 -0.003035 0.002767 -0.004402 0.003297 0.004275 0.000821 -0.002978 -0.004848 0.002044 -0.000028 -0.004996 -0.000882 0.002749 -0.003221 -0.002702 -0.002730 -0.002786 0.001246 0.004315 -0.004163 -0.002215 -0.001327 0.003897 -0.003451 -0.003828 -0.004565 0.001800 -0.001972 -0.002877 -0.002508 0.000397 0.000806 -0.003929 0.001958 0.002826 0.000326 0.003280 0.000882 0.001922 0.002914 0.000315 -0.002503 -0.003155 0.004239 -0.003256 0.003887 0.000979 -0.003681 0.001710 0.003256 0.003767 0.000722 0.003186 0.001581 0.003528 0.003794 -0.001960 -0.001152 0.000010 -0.003011 -0.004662 -0.003076 -0.000852 0.001351 -0.001985 0.002334 0.004729 0.000379 -0.004450 -0.003957 -0.002127 0.002235 0.002873 -0.004487 0.004938 -0.002720 0.003109 0.003826
will -0.001119 -0.001193 0.001045 0.002286 0.001707 0.003658 -0.004085 0.003206 -0.002875 -0.000349 0.004377 -0.004693 0.003185 -0.004128 0.002059 -0.003849 0.001384 -0.003728 -0.000645 0.004759 -0.003375 -0.004950 0.004992 0.002752 -0.002204 0.004102 -0.000070 0.003581 0.000013 0.000231 -0.000568 -0.001650 0.003384 -0.000576 -0.002624 -0.003615 0.002633 -0.001377 -0.001279 0.004502 -0.000536 -0.002120 -0.002855 -0.000563 0.000773 -0.004469 0.004774 0.004370 0.002263 -0.004366 -0.003300 0.004321 0.003039 -0.002776 -0.000620 -0.002239 0.000026 0.002270 -0.002573 0.004528 -0.000515 -0.003411 -0.001349 0.003360 -0.004581 0.001883 -0.002540 -0.002353 -0.002689 -0.004856 0.000486 -0.002093 -0.002570 0.003684 -0.002908 -0.004911 0.003343 0.004463 0.001000 -0.001828 0.002561 0.003943 0.002059 0.002168 -0.001610 0.003442 -0.002915 0.000053 -0.001224 -0.002244 -0.003641 -0.002376 -0.002510 -0.002896 -0.003901 -0.002192 0.003324 -0.004638 -0.002601 -0.002702
including 0.001840 -0.002092 0.001589 -0.002740 -0.001253 -0.001922 -0.002359 -0.004390 -0.000827 0.001044 0.001688 0.003997 -0.001230 -0.000951 -0.003218 0.000238 -0.003842 0.000756 0.001732 -0.004341 -0.003766 -0.003150 -0.000677 -0.004185 -0.002899 0.001105 0.000473 0.003153 0.002090 -0.000371 -0.003305 0.000926 0.004629 -0.002764 0.004633 0.000212 -0.000106 0.004717 0.001098 -0.002631 0.004573 -0.001920 0.004557 0.002302 0.001049 0.000518 -0.001791 -0.002006 0.000736 0.000998 -0.003770 -0.000196 0.004715 -0.004752 0.004785 -0.004894 0.004717 0.001609 0.004755 0.004922 -0.000314 -0.004514 -0.002309 0.001253 0.002491 0.001475 -0.002442 0.002749 0.001973 0.001028 -0.002507 -0.001300 -0.000800 0.002245 -0.002555 0.004329 0.003369 0.003796 0.001152 0.002042 -0.000923 -0.003665 0.003032 0.004759 -0.004825 -0.002217 0.001357 -0.002591 0.003016 -0.003241 0.004525 0.000636 -0.004092 0.002735 0.001567 0.004933 0.003653 -0.000836 0.002234 0.001187
research -0.004992 -0.000891 -0.002068 0.002723 0.000907 -0.003163 -0.002462 -0.002238 -0.002292 -0.002691 -0.002198 0.004279 -0.001433 -0.002153 0.001142 -0.001106 0.002595 -0.003316 -0.001713 0.002844 0.001034 0.001489 -0.003302 0.002138 0.001814 -0.003873 0.001190 0.004350 -0.002890 -0.000607 -0.000776 0.000261 0.004896 0.003022 -0.003426 -0.003854 0.000137 -0.004727 -0.000843 0.004292 -0.004556 0.004609 0.002188 -0.001708 -0.003023 -0.000467 0.000435 -0.001277 0.004892 -0.002138 0.004574 -0.003498 0.000883 0.001768 0.001947 0.001497 0.004024 -0.001330 -0.002166 0.004502 0.000146 -0.004301 0.000942 0.003794 0.002231 -0.000533 0.000899 -0.003701 -0.003682 -0.001419 0.004221 -0.003091 -0.003482 0.002445 0.002199 0.003649 -0.001643 -0.000441 0.001806 -0.000293 -0.002668 0.000115 -0.002359 0.002105 0.002937 0.003865 -0.000783 0.000411 -0.002545 0.001486 0.001364 -0.004486 0.000185 -0.003413 0.002964 -0.000504 -0.001382 0.000684 -0.002463 -0.004860
respect -0.001578 -0.001090 0.003461 -0.002817 -0.003355 0.002217 -0.003739 0.001496 -0.003589 -0.004677 0.002916 -0.001472 0.000757 0.004307 0.001700 0.004993 -0.004599 0.002215 -0.003755 0.001217 0.002407 -0.002202 0.003455 -0.001258 -0.001974 -0.003457 -0.002098 -0.004005 -0.004465 -0.000065 0.000287 0.004229 -0.003833 -0.004789 0.004447 0.001623 0.004739 -0.002645 0.004053 -0.001245 -0.001539 0.003893 -0.001700 -0.002892 0.003741 -0.001738 0.003036 0.000254 -0.004133 0.001699 -0.001679 -0.000761 0.001624 0.002597 0.000119 -0.002503 0.002264 0.001854 -0.000068 -0.004096 0.001590 -0.000954 0.002485 0.000001 0.002118 -0.000325 0.002961 0.003170 -0.003205 -0.001071 0.000611 0.003751 -0.001389 -0.004421 0.000080 0.000133 0.002681 0.002479 0.003370 0.003866 -0.003663 0.001793 0.001671 0.002877 -0.001736 -0.002096 -0.001394 0.002533 0.003791 -0.003595 0.004376 -0.002925 0.001032 0.001919 0.000153 -0.002545 -0.001615 -0.000187 -0.000159 0.001962
requirements 0.004750 -0.002398 -0.000323 -0.002838 0.002930 -0.001470 0.000543 0.002986 0.004065 0.003677 -0.000510 -0.004032 -0.003457 0.004054 -0.003262 -0.001821 0.003387 0.001920 0.000700 -0.001904 -0.000713 -0.001570 0.001601 -0.004392 -0.000561 0.001131 0.002085 0.002753 -0.003550 0.000864 0.003895 0.003193 0.002804 0.001561 0.004245 0.000546 0.004106 0.003123 0.004658 -0.004731 -0.004694 0.004022 0.001534 0.001253 -0.003761 -0.001371 -0.002801 -0.002989 0.004748 0.000774 0.004478 0.000700 -0.003602 0.004558 -0.003346 -0.000376 0.000588 -0.004904 0.001630 -0.001132 0.001959 -0.000646 0.001659 -0.001433 -0.000648 0.002139 -0.000838 -0.001922 -0.003865 -0.004586 0.003325 -0.002889 0.001060 0.003328 -0.004235 -0.004944 0.004876 0.001207 0.003418 0.002349 -0.000965 -0.003394 -0.000728 0.001925 -0.002667 -0.002782 0.001822 0.002470 0.001810 -0.003087 -0.003701 -0.001269 -0.003173 -0.000808 0.002492 -0.002033 -0.001936 0.003653 -0.001532 0.002596
means -0.003323 -0.000265 -0.003809 0.004048 0.002218 -0.001753 0.004867 0.004452 -0.000351 -0.003033 0.001026 -0.003889 0.004601 0.002494 -0.002391 -0.003677 0.003615 -0.000870 -0.000136 0.001141 -0.001736 -0.003793 -0.003490 -0.000629 -0.001390 0.000633 -0.003908 -0.000361 0.004074 0.000915 0.001553 -0.004614 -0.002364 0.000244 0.002733 -0.002672 -0.000533 0.000566 -0.001254 -0.002450 0.003204 0.001014 -0.001282 -0.004624 0.000031 -0.001217 0.000764 -0.001225 -0.000387 -0.002542 -0.004386 -0.001138 -0.004563 0.004359 -0.003339 0.001395 -0.003672 0.002494 -0.001261 -0.001240 -0.000353 -0.003278 0.000970 0.002748 -0.004523 0.002315 -0.004371 0.000683 -0.004469 0.003520 -0.000820 0.000827 0.002329 -0.000130 -0.004068 0.002371 0.001445 -0.003528 -0.001189 -0.002674 0.003265 -0.003971 -0.000407 -0.002792 -0.002736 -0.004742 0.003734 0.000981 -0.000587 0.000384 0.003660 -0.004380 -0.000726 0.004342 0.003616 0.002670 -0.003025 0.003478 -0.003075 0.004817
geothermal 0.003075 -0.001728 -0.003335 0.001786 -0.003322 -0.003114 -0.000770 -0.001751 0.004291 0.000618 -0.000433 -0.003452 0.004422 -0.004559 -0.000489 0.000391 -0.002307 -0.001315 -0.001384 0.004517 0.003210 -0.000735 0.000865 0.003816 -0.001617 -0.002247 0.001373 0.003158 0.004982 0.004315 -0.001212 -0.000470 0.004347 0.004761 0.002007 -0.004977 0.001426 -0.001405 0.003783 -0.003457 0.003500 -0.001154 -0.000018 0.002736 -0.004606 -0.002486 -0.003409 -0.001915 -0.004155 0.001640 -0.002596 -0.000422 0.001861 0.001323 -0.002757 0.002853 -0.000781 -0.002393 0.001665 -0.002085 0.002315 -0.003056 0.000177 -0.001913 -0.004289 0.003945 0.001237 0.004188 0.004994 0.002210 0.000052 -0.000738 0.002249 -0.004805 -0.000420 -0.001612 -0.004554 -0.000034 -0.001120 -0.000397 -0.002428 0.001530 0.001997 0.004721 0.001603 0.004335 0.002307 0.003665 0.000401 0.000797 -0.001216 0.001393 0.004704 0.004451 -0.002113 -0.003313 0.001829 -0.002970 -0.000324 0.002221
provide 0.002391 0.003708 -0.002976 -0.004522 0.002564 0.002601 0.001249 -0.004217 0.000594 0.003300 0.002499 0.000680 -0.001914 -0.000806 0.002512 -0.000526 0.003783 0.004769 -0.002637 -0.003067 -0.004766 -0.000497 0.000364 -0.002944 0.001413 0.003193 -0.003195 0.003496 -0.004929 0.001886 -0.002207 -0.002711 -0.000238 -0.004813 0.003905 -0.002931 0.003526 0.003024 -0.000510 0.003856 -0.003834 -0.000759 0.003193 0.000464 0.002845 0.002321 0.004351 -0.001414 0.001410 -0.004070 -0.003122 -0.004981 -0.002959 0.000606 -0.004937 -0.002867 -0.001905 0.000377 0.001671 0.001553 -0.002778 -0.000404 -0.002454 0.002493 -0.002163 -0.001499 -0.003123 0.000961 0.002179 -0.000637 0.004708 0.000430 -0.004946 0.003288 -0.004341 0.003579 -0.001154 0.001809 -0.003793 0.004479 0.000521 -0.003881 0.000452 0.000654 -0.002765 -0.004975 0.000197 0.002173 0.001436 -0.002275 -0.000597 0.004750 0.004426 0.004677 0.003171 -0.002002 -0.000374 0.003742 0.001774 0.004774
days -0.002949 -0.002434 -0.004450 -0.003275 0.001626 0.003592 0.002554 0.002046 -0.004228 0.001078 -0.001492 0.002981 0.003819 0.000191 0.001574 -0.001229 -0.001071 0.002834 0.002915 0.002139 0.004366 -0.002782 -0.001287 0.003254 -0.000496 -0.001662 0.004699 -0.003711 0.000622 -0.002554 0.004590 -0.004096 -0.000092 -0.002114 -0.002848 0.004065 0.003133 0.000131 0.002058 0.004481 0.003846 0.004501 0.001045 0.000067 -0.002989 0.002128 0.003374 0.001879 -0.000428 0.002879 -0.001723 -0.001968 0.003588 -0.002357 -0.001759 -0.001125 -0.004313 0.004166 -0.002045 -0.001905 0.003395 -0.001026 -0.002560 -0.002647 -0.003430 -0.000408 -0.003132 0.002497 0.001506 -0.000779 0.004003 0.003881 -0.001357 -0.002293 -0.001668 -0.000131 0.003783 -0.004969 -0.002058 -0.001723 -0.000668 0.004371 0.003883 -0.003595 -0.003158 0.003056 -0.002719 -0.001921 0.004953 -0.002993 0.003915 0.001327 -0.004793 -0.001416 0.004721 0.002969 0.001817 0.002992 -0.002250 -0.001122
available -0.001369 0.004783 -0.004246 -0.000167 -0.002576 0.000549 0.004842 -0.000101 -0.000081 -0.001799 0.003750 -0.002712 -0.004351 -0.000162 0.001866 0.004447 -0.003469 -0.000851 0.003297 -0.001268 -0.003386 -0.003731 -0.000041 0.002057 -0.003609 0.000845 0.000374 0.003358 -0.002473 -0.002971 0.002914 -0.001002 -0.001418 -0.000400 0.000281 0.004416 -0.000336 -0.001247 0.002068 0.000273 -0.004003 0.000454 0.003986 -0.002271 -0.004507 -0.000598 0.003186 -0.000306 0.004100 0.004192 -0.004361 -0.004567 0.001003 0.000343 0.002067 0.004212 -0.003908 -0.001732 0.001177 -0.003771 -0.002292 0.003211 -0.000082 -0.001184 0.000820 0.004741 -0.000986 -0.000608 0.003253 0.003533 0.003230 0.000691 0.004870 0.004664 -0.003632 0.004228 0.003388 -0.000057 0.002690 -0.003538 -0.004360 0.002548 0.001654 0.000333 0.004479 0.003159 0.000052 -0.003547 -0.001037 0.001644 0.004865 0.003991 -0.001153 -0.001134 -0.000138 0.003840 0.003611 -0.004959 -0.004882 0.000638
leases 0.000867 -0.002840 0.004444 -0.002731 -0.003394 -0.000731 -0.000438 -0.001253 -0.001446 0.000474 -0.000202 0.003348 0.004496 -0.004716 0.003753 -0.004764 -0.001665 -0.000588 -0.002819 -0.003368 0.002641 -0.000414 -0.003174 0.003720 -0.002975 -0.004554 0.003297 0.001614 -0.000958 0.004220 0.002889 0.003481 0.003897 0.001943 0.003600 -0.000019 0.003701 -0.004544 0.003008 0.003613 -0.002408 0.002298 0.002154 0.001273 -0.003257 -0.004194 0.001130 -0.002843 0.004976 -0.004282 0.000922 0.001198 0.003479 0.003140 0.002356 0.002652 -0.003739 0.000105 -0.002326 -0.003211 0.002727 0.001762 0.000041 -0.004429 0.001822 -0.001044 -0.000016 0.002501 0.003260 0.003493 0.003545 0.003436 -0.004831 -0.003316 -0.002654 -0.001713 0.003460 -0.003332 -0.001617 0.002077 -0.002120 -0.004589 0.001529 0.002066 -0.004885 -0.001767 0.004280 -0.000269 -0.001508 -0.002094 -0.001203 0.004793 0.000603 -0.000427 0.001714 0.001361 0.003742 0.004057 0.003451 0.000385
thereof 0.003457 0.003845 0.000757 -0.000405 0.002128 -0.000301 -0.002356 0.002921 0.000297 -0.000725 -0.000664 0.000545 -0.000447 -0.004769 0.003979 -0.004588 0.001259 -0.001994 -0.002718 -0.004125 -0.001154 -0.001834 -0.003015 -0.001627 0.001300 -0.004672 -0.003498 0.002186 -0.001915 0.004296 0.004482 0.001942 0.000080 0.003536 0.002011 0.001707 0.003482 0.000101 0.002669 0.004233 -0.004935 0.002640 -0.003896 -0.001673 0.004128 -0.004369 -0.003800 0.000486 -0.003325 0.001248 0.004732 -0.000071 0.004182 -0.003873 -0.000443 -0.000322 -0.001188 0.000643 0.004293 0.003601 -0.002405 -0.002487 0.002377 -0.001969 -0.004571 -0.002224 0.000383 0.002744 0.000960 -0.000842 0.003997 0.000918 -0.002909 -0.004492 0.001754 -0.001381 -0.004090 0.004307 0.000155 0.002302 0.002212 0.003163 0.004800 0.002120 -0.000297 -0.000309 0.004140 -0.003518 -0.004994 0.000738 0.002738 0.003003 0.003565 0.002217 -0.002401 -0.003024 -0.004536 -0.002989 -0.001441 -0.003941
one -0.003195 0.004270 -0.003350 0.001893 0.000530 -0.000439 -0.002648 -0.000288 -0.003220 0.001002 0.001687 -0.004540 0.001034 0.002823 0.004031 -0.001028 0.002506 -0.001613 -0.004618 0.000132 -0.004714 -0.002042 -0.003299 0.004880 0.004708 -0.003744 -0.003143 0.004910 -0.004274 -0.000529 -0.004218 -0.002792 0.003904 0.003879 0.000847 0.001543 -0.003200 -0.004627 -0.004976 -0.004946 -0.003269 -0.002275 -0.001578 0.003309 0.003818 -0.003152 0.002981 -0.003234 0.001788 0.001271 0.000112 -0.002045 -0.000289 0.000298 -0.004224 -0.000729 -0.003700 -0.001285 0.000441 -0.003901 0.002998 -0.000400 0.003796 0.003682 -0.000975 0.003015 -0.000908 -0.001120 0.004912 0.002066 -0.002299 -0.004796 0.000625 -0.001844 -0.004925 -0.003164 0.002512 0.000623 0.002664 -0.001474 0.001243 0.003822 0.004495 -0.002598 -0.002402 -0.001095 0.000460 -0.004319 0.000885 0.002004 -0.003245 0.001589 0.002452 -0.000445 -0.001531 -0.004309 0.000804 0.002009 -0.001967 -0.004017
laws -0.004368 -0.002623 -0.003032 -0.000398 0.002382 0.004580 -0.000121 0.001377 0.000364 0.001275 -0.002695 0.000868 -0.001681 -0.001992 0.003697 -0.001198 -0.000702 0.003783 0.001965 0.000222 -0.003726 0.001982 0.002412 -0.001788 0.000108 -0.004314 -0.000150 -0.002584 0.000551 -0.001486 -0.002946 -0.002210 -0.002977 -0.001317 0.000096 -0.003812 0.000475 -0.003543 0.001638 0.004762 -0.001953 -0.003660 0.000239 -0.000069 0.004486 0.004475 -0.001557 0.000783 -0.000741 0.004353 0.003210 -0.004761 -0.003212 0.000309 -0.004199 -0.004286 0.002095 -0.003805 -0.000779 0.000940 0.000903 -0.003825 0.000279 0.003338 0.001866 -0.002833 0.002218 -0.001368 -0.004490 -0.004853 -0.003464 -0.003066 0.001756 -0.000825 0.001962 -0.001240 0.003039 -0.004339 0.003805 -0.004096 0.001855 -0.000829 -0.002594 0.002058 0.004429 -0.002648 -0.000085 0.003415 0.001161 -0.001913 0.004778 0.001976 0.002896 -0.003984 -0.004541 -0.002427 -0.003353 -0.001103 0.000763 0.001290
payment 0.001941 -0.002076 0.003923 -0.002197 -0.003735 -0.000128 0.004219 0.003461 -0.003087 0.004535 -0.003604 0.003407 -0.004101 -0.003083 -0.002599 -0.000469 0.001844 -0.002570 -0.001740 0.003519 0.001184 0.001806 0.003044 0.002374 -0.002421 0.002475 0.003245 0.002979 0.001270 -0.004328 0.003680 -0.004188 0.002333 -0.003402 0.003138 -0.002989 -0.004307 -0.004155 -0.000427 -0.004221 -0.001590 -0.003832 -0.003240 -0.002216 -0.003579 0.001475 -0.002777 -0.002576 -0.003600 -0.003015 0.004879 -0.003864 0.000295 -0.002645 -0.000108 0.002479 0.000947 -0.002838 -0.002167 0.000459 0.003504 0.004001 -0.001497 0.004591 -0.000982 -0.001319 -0.002455 0.000966 0.003362 0.000855 -0.000602 0.001524 -0.004517 0.000176 -0.004512 0.000914 0.000448 0.003251 0.004158 -0.004147 0.002446 -0.002958 -0.000962 0.001114 -0.001469 0.004884 0.002366 -0.003028 -0.001701 -0.001955 0.001875 -0.003987 -0.000118 -0.002643 -0.004195 -0.003611 0.004645 -0.002298 0.004714 0.001792
information -0.000366 0.001337 0.004118 -0.000094 -0.001995 0.002776 -0.003743 0.000914 0.002799 -0.003527 -0.004789 -0.001500 -0.004525 0.000113 0.002293 -0.002313 -0.000808 0.001012 -0.003161 -0.003651 0.004357 0.003414 0.004952 -0.001209 0.003892 -0.001472 -0.002683 -0.002445 -0.002889 -0.004755 -0.003183 -0.000252 0.004885 -0.002174 0.003453 -0.001730 0.001829 -0.000669 0.002919 0.002078 0.002723 -0.001744 -0.004689 -0.001959 0.000405 0.002856 0.004734 0.004399 -0.004890 0.001108 0.004399 -0.004297 -0.003906 0.003506 -0.001161 -0.000795 0.002422 -0.000179 -0.002371 -0.001621 0.004605 0.002012 -0.003657 -0.003626 0.002437 -0.000662 0.004972 -0.001426 -0.004686 -0.004335 0.000935 -0.002032 -0.001961 -0.000276 -0.004025 -0.001875 -0.001131 -0.000482 0.004497 -0.004985 0.001810 -0.004208 -0.000667 -0.001765 -0.002211 0.001165 0.003772 0.004618 0.004551 0.000278 0.001518 0.003486 -0.001620 -0.004941 -0.000822 0.004997 0.001305 0.003697 0.003526 -0.001971
regulatory 0.001551 -0.001458 -0.001160 0.001902 0.000257 0.002960 0.004464 0.003219 0.001730 0.000810 0.003319 -0.002125 0.000553 -0.000280 0.003103 0.002641 -0.000048 0.004124 -0.002995 -0.001563 -0.002656 0.004790 0.001682 0.000460 0.001348 0.000635 -0.004796 0.001013 0.000656 0.002599 0.002553 0.002714 -0.002171 0.004997 -0.002835 0.004286 0.004106 -0.001575 0.001169 -0.003395 0.004063 -0.002867 -0.002502 0.000921 -0.000203 0.000306 0.002597 -0.000075 -0.000709 0.001914 0.003359 0.001118 0.003795 -0.001337 0.002998 -0.004876 0.004737 0.004355 0.000945 -0.002649 0.004233 0.000333 -0.003228 0.002117 0.002502 -0.004920 -0.002852 -0.004353 0.001019 0.001618 -0.004996 0.001738 -0.001559 -0.001856 -0.001542 -0.002709 0.002869 -0.000131 0.000162 0.003520 0.004595 -0.004343 0.000610 0.004831 0.002638 0.004367 -0.002340 -0.001506 -0.001475 -0.002741 0.000748 -0.003099 0.000117 -0.004612 -0.000530 0.004317 -0.002930 0.004852 0.001585 0.001661
energy 0.004571 0.001144 0.003112 0.001981 -0.004841 0.004199 0.002053 -0.001794 -0.000121 0.004753 0.000363 0.001173 -0.003542 0.000100 -0.002851 0.001018 0.003062 0.002745 0.004881 0.002439 0.003515 -0.004072 0.000826 -0.003941 0.001733 -0.000087 0.003899 -0.001302 0.000319 0.001723 -0.001169 -0.003609 -0.000711 -0.001393 -0.002082 -0.003041 -0.004983 0.003320 -0.002978 0.002422 0.000710 -0.004124 0.004244 0.003009 0.004492 -0.001947 0.000576 -0.000071 0.002305 -0.003131 0.003417 0.001466 -0.000087 0.000784 0.003006 -0.004625 -0.004531 -0.000526 -0.000041 0.002574 0.000756 0.002118 -0.001415 0.003534 -0.002193 0.001026 -0.001650 -0.000392 -0.000906 -0.001337 0.002889 -0.004030 -0.000073 0.003519 0.003187 0.000748 0.003020 0.002793 -0.002940 -0.003604 0.000151 -0.000348 0.003108 0.003513 -0.003430 0.000946 -0.004760 0.003960 -0.000294 -0.001069 0.001811 0.002079 -0.000681 -0.001031 0.001468 0.001914 -0.001268 0.004765 -0.002728 0.002081
production -0.003143 -0.002614 -0.000900 0.002270 0.001822 0.001541 -0.000771 0.004670 0.003397 0.000047 0.002987 -0.004752 -0.004930 -0.000146 0.002326 0.000057 0.003052 -0.001458 0.000805 -0.003276 0.004217 0.001086 -0.002001 -0.003064 0.003584 0.000881 -0.000578 -0.004573 0.003181 -0.000080 0.004083 -0.004435 -0.002973 0.004999 -0.001039 0.003131 0.004363 0.003850 -0.003629 -0.004842 0.000721 0.003106 -0.002547 0.001151 0.003431 -0.001529 -0.001801 0.001943 0.003963 0.001737 -0.000817 -0.002872 0.003949 0.000068 -0.003283 -0.004856 -0.004621 -0.002455 0.001434 -0.003693 0.004649 -0.000780 0.001878 -0.003809 -0.000779 -0.000537 0.003717 -0.001819 0.000147 -0.002747 0.004672 -0.001120 -0.004696 0.004561 0.003115 -0.002079 0.004700 0.000805 0.003446 0.003470 -0.004399 0.004393 0.004855 0.004305 -0.004119 0.004144 0.002169 0.004730 -0.000186 0.001974 -0.004393 0.004653 -0.004301 -0.004408 0.004409 -0.003895 -0.002992 -0.000244 0.001963 -0.001308
national 0.001758 0.003582 -0.002211 0.004880 0.003628 -0.003922 0.000784 0.001637 0.004467 0.004255 -0.002050 0.001345 -0.000530 0.002454 -0.002529 0.001675 -0.001037 -0.002088 -0.004675 0.002730 0.004930 0.003421 0.003585 -0.003012 -0.002098 0.002788 -0.001692 0.001140 0.001305 -0.003978 0.000268 0.002894 0.003315 -0.002888 0.001346 -0.003580 -0.002742 0.000367 0.002609 -0.004400 0.002879 0.004567 0.000010 0.001936 0.002846 0.000096 0.001655 0.003909 -0.004467 0.002419 0.003666 0.003762 0.004259 0.000423 -0.001698 -0.002245 0.001561 -0.000388 0.001833 0.004074 -0.003839 -0.004886 -0.001104 0.000610 -0.002695 0.004641 -0.004142 0.001944 0.000213 -0.004496 0.002319 -0.003887 -0.003978 0.002968 -0.001554 -0.000528 0.004814 0.001092 -0.004120 0.004606 -0.000618 0.001780 -0.003860 -0.003254 -0.000852 -0.004950 0.004989 -0.004187 0.003710 0.000863 0.000627 -0.000610 0.002620 -0.004068 0.003278 -0.004978 0.002042 -0.004928 0.002042 0.001939
approved -0.003776 0.001210 0.000022 -0.004305 -0.002662 -0.000753 0.000801 -0.003007 0.000725 0.000876 0.004944 0.002682 -0.003516 -0.001493 -0.002351 -0.001443 -0.004254 -0.004172 0.003979 -0.002616 0.000824 0.003787 -0.004615 0.001112 -0.003790 0.000944 -0.004607 0.002838 0.001003 -0.002512 0.000118 -0.003275 0.001804 0.003099 -0.004404 -0.000735 0.000454 -0.001545 -0.000475 -0.004515 0.003853 0.003848 0.000005 -0.000294 0.004505 -0.001792 -0.000158 -0.003679 -0.000889 -0.000116 -0.002184 0.001363 0.004529 -0.001553 0.000468 0.001749 -0.000455 0.003769 -0.001244 0.001099 -0.000166 -0.003693 0.002345 -0.000872 0.000751 -0.000006 -0.004151 0.003747 0.000928 0.002553 0.002174 -0.002870 -0.001565 -0.002632 -0.004875 0.000287 0.002912 -0.002976 -0.001511 -0.002073 0.004493 -0.001241 0.000546 -0.003083 -0.000507 0.004984 0.001481 -0.004002 0.003562 -0.003881 -0.000526 -0.003644 -0.001646 -0.002506 -0.002304 0.003617 -0.002938 -0.001593 -0.001965 0.001979
persons 0.001770 0.003560 0.004854 0.003141 0.003970 0.000817 0.003624 -0.002239 -0.003251 0.003304 -0.001583 -0.004572 -0.004523 -0.004582 0.002200 0.003360 0.000531 0.004509 -0.004742 0.002314 0.002035 0.002943 0.000641 -0.002733 0.002633 0.001192 0.003516 -0.001812 -0.000161 0.004953 -0.004940 -0.003128 0.000416 0.002457 -0.004337 0.004591 0.002169 0.004645 0.001644 -0.003965 -0.003858 -0.004981 0.000108 0.003352 0.004844 -0.004113 -0.000017 0.000413 -0.000554 -0.000604 0.002854 -0.000744 -0.003183 0.001964 -0.003159 -0.003029 0.001120 0.002720 0.001623 0.002488 0.000449 -0.001641 -0.004239 -0.002577 0.000697 -0.001286 -0.002462 -0.004603 0.000569 -0.002950 0.003432 0.001539 0.002137 0.002449 0.001922 -0.000614 -0.001169 -0.001903 -0.004732 -0.004095 0.002914 0.004280 0.000699 0.003591 0.000904 -0.003111 0.001401 -0.003450 -0.004000 0.002387 0.003245 0.002794 0.003834 0.001251 0.000397 -0.003906 0.004616 0.004747 -0.001774 0.002784
accordance -0.001685 -0.000639 0.000535 0.003011 0.002952 0.000417 -0.002049 -0.004499 -0.001117 -0.000230 0.000317 0.000070 0.000504 0.003434 0.003354 -0.000932 -0.003445 0.004105 0.001921 -0.003839 0.001374 -0.000561 0.000208 0.004485 -0.002456 -0.001062 -0.001353 -0.004438 0.000426 0.003626 -0.000448 -0.001601 -0.004442 -0.003151 0.004624 0.001054 -0.002288 -0.004151 0.004915 -0.004033 0.003502 0.000947 0.002861 -0.003100 -0.003762 0.001932 -0.003506 -0.000998 0.001903 -0.000350 0.002100 0.004325 -0.002587 -0.004595 0.004883 0.001884 0.002244 0.002133 -0.001398 0.004812 -0.000542 0.001484 0.003784 0.004467 0.004898 -0.004375 -0.001787 -0.000834 0.000569 0.003191 0.001444 0.002667 -0.000086 -0.003522 0.003200 0.001411 0.003653 0.001615 0.002044 0.003771 0.002695 0.002511 -0.003884 -0.002349 -0.003311 0.004080 0.000164 -0.003372 -0.002317 0.001622 0.001344 -0.003738 -0.004641 -0.002068 0.002507 -0.000093 0.004170 -0.003140 0.001532 0.000927
term -0.001983 -0.002216 0.002778 0.003359 -0.001734 -0.003267 0.000317 -0.004132 -0.002801 -0.002788 -0.004494 0.000012 0.001534 0.000368 -0.001808 0.000852 0.000610 -0.003797 -0.004844 -0.001323 0.002975 0.001290 0.004495 0.002081 0.002844 -0.000899 0.000801 -0.002683 0.001470 -0.001242 -0.000698 -0.002709 0.002284 -0.002513 0.004723 -0.000118 -0.000329 -0.001912 0.004503 0.002897 0.002841 -0.003805 -0.002807 -0.004189 0.002780 0.001299 -0.000973 -0.001298 -0.002927 -0.003496 -0.004822 0.004026 0.004423 0.000771 0.001300 -0.001247 -0.001070 -0.002120 -0.001543 -0.002856 -0.000596 0.003736 0.000612 0.003663 -0.003990 -0.003692 0.001623 -0.001802 0.004101 0.003162 0.003028 0.004432 -0.001912 -0.001965 -0.001838 -0.003645 0.001915 -0.003528 0.003135 -0.002502 -0.004809 -0.002489 0.001308 -0.000637 0.001775 0.002022 0.004572 -0.001582 -0.004239 -0.001647 0.001406 0.001314 -0.000217 0.001587 -0.000396 0.001901 -0.000063 -0.004496 -0.001917 0.003011
lessee -0.004461 -0.000966 -0.000690 0.001883 0.004727 -0.000802 0.002727 -0.002939 -0.004417 0.000005 -0.001249 -0.003523 0.004550 -0.001124 0.003299 0.004836 0.003098 -0.003838 -0.001240 -0.003429 -0.001274 0.002184 0.003536 0.002811 -0.000835 -0.004946 -0.003351 -0.000331 -0.003986 0.002159 0.002376 0.002588 0.003609 0.002661 0.002475 0.000994 0.004570 0.000749 -0.001911 -0.001103 0.003807 -0.001320 -0.001318 -0.004507 0.001848 -0.000007 0.002052 0.003688 -0.003234 0.003785 -0.002103 0.002593 -0.002721 -0.002717 -0.001224 0.003903 0.002646 -0.004253 -0.003124 0.000213 0.004380 0.003489 0.001367 -0.002296 0.000816 -0.004442 -0.003773 0.004536 0.002775 0.002260 -0.004959 0.003748 0.001121 0.000985 0.001337 -0.003512 0.004550 -0.004531 0.003571 0.004162 0.003120 -0.001867 0.000112 0.000489 0.000682 0.003897 0.001628 0.002693 0.001145 -0.003438 -0.002615 0.003700 -0.000845 -0.003693 -0.000738 -0.004894 -0.000379 -0.003505 0.002980 0.003302
years -0.003032 -0.004500 0.004608 0.001513 0.001115 -0.002628 0.004802 -0.000494 0.003643 0.002569 0.001748 0.003308 -0.002696 0.001825 0.001607 0.004867 -0.004216 0.004615 0.001844 -0.004422 0.003338 -0.003915 0.002399 -0.001941 -0.000385 -0.004788 0.000623 0.003017 -0.000493 0.000881 0.004935 -0.003825 0.002870 0.003004 -0.003953 -0.001648 -0.000892 -0.004165 -0.004659 0.002770 -0.004840 -0.001027 -0.001631 0.003144 0.002129 0.003297 0.004816 0.000710 -0.002150 -0.004505 0.003178 -0.000138 0.000722 -0.003454 0.001625 -0.001493 -0.001182 0.000907 0.002292 0.003671 -0.004885 -0.001950 -0.004172 0.001083 0.003166 0.004602 -0.001591 0.004400 0.002661 -0.001924 -0.003749 0.000214 0.001111 -0.003706 -0.000388 0.000792 -0.003496 -0.001742 -0.001900 -0.000890 -0.003861 -0.004118 0.000825 -0.003742 -0.000861 -0.002240 0.002851 0.000207 -0.000027 -0.001688 -0.000352 -0.002782 0.000252 -0.001883 -0.003933 -0.002822 -0.002082 -0.003005 0.002052 0.001525
exploration -0.004950 0.004407 -0.001314 -0.004657 -0.004741 -0.004746 0.002440 -0.001650 0.003170 -0.004069 0.004925 0.003532 0.004237 -0.003590 0.004788 -0.002553 -0.003749 0.003318 -0.003766 0.001282 0.004349 -0.003777 -0.000782 0.002782 0.001257 -0.004085 0.001319 -0.001610 -0.000520 0.004094 -0.002017 0.001031 -0.001589 -0.004564 -0.001689 0.004714 0.002737 0.004757 -0.001379 -0.003321 -0.004183 0.003478 -0.003365 -0.004608 -0.002800 0.002771 -0.000506 0.002874 0.002029 -0.004775 -0.002094 0.003656 -0.002975 -0.000980 -0.001291 0.000584 -0.000078 -0.001237 -0.001965 0.000327 0.003661 -0.003708 0.000811 -0.000311 -0.004637 0.003388 -0.003257 -0.003341 0.001967 -0.000250 -0.004525 0.004648 -0.001673 0.002453 0.003407 -0.000788 -0.004726 0.002093 -0.000832 -0.004804 0.004520 -0.004446 0.000627 0.000854 0.004280 -0.001895 0.000261 -0.002635 -0.001703 0.001608 -0.001054 -0.000272 -0.002901 -0.001371 0.003972 0.003548 0.003375 -0.002264 -0.000830 0.004848
water -0.002762 -0.002886 0.001670 0.000824 0.004403 -0.002888 -0.001386 -0.001445 0.004515 0.001890 0.000552 -0.001295 0.001103 -0.001514 -0.001808 -0.001098 -0.004089 0.000035 -0.000279 -0.001352 0.003962 -0.001689 0.004617 0.001982 0.004604 0.002726 -0.004860 0.002179 0.004676 0.002925 0.004237 -0.001332 0.000481 0.003788 -0.004366 0.003493 -0.001060 -0.004636 0.003044 0.004100 0.003898 -0.001904 -0.003274 0.003130 -0.000097 0.004379 0.002455 -0.002212 -0.001969 -0.004317 -0.003649 0.001912 -0.004109 0.002777 -0.003167 0.000004 -0.002548 0.002451 -0.004752 -0.001605 0.002598 0.002506 -0.001041 0.003978 0.004648 0.003362 -0.002936 -0.003068 -0.003627 0.003944 0.002858 -0.004841 -0.004186 0.000604 -0.002481 0.001805 -0.000138 -0.001281 -0.001316 0.003940 0.000632 0.000410 -0.004432 0.003005 0.004748 0.000892 -0.001380 0.004563 -0.003089 -0.001932 0.001708 0.004769 -0.004729 -0.001683 0.000569 -0.003645 -0.001807 -0.001056 0.004462 -0.000526
per 0.003721 0.001678 0.002602 -0.001938 -0.000452 0.000914 -0.003520 -0.004584 0.002949 0.003077 0.000983 -0.000799 0.001286 0.004281 -0.000129 -0.001378 0.001108 0.002024 0.000287 0.001584 -0.003998 0.002288 -0.002626 0.002434 -0.001694 -0.004161 -0.002475 -0.000047 0.003830 -0.003872 -0.003288 0.000234 0.000931 0.001744 0.001730 0.003043 0.002241 -0.002698 0.003893 -0.003803 -0.001940 -0.000874 0.000866 0.000566 -0.000613 0.003344 0.000644 -0.000944 0.000439 0.002856 -0.000627 -0.001391 -0.000580 0.003208 0.002685 0.000814 -0.001996 0.002449 0.001041 -0.002446 0.002450 -0.003756 -0.003948 -0.004505 -0.001052 0.001358 0.003508 -0.000972 -0.003839 0.001951 0.000586 -0.003038 -0.002896 -0.003017 -0.001581 -0.000115 -0.003518 -0.002601 0.000653 0.001748 0.003358 0.002407 -0.000263 -0.004892 -0.002717 -0.002467 -0.003612 -0.002942 0.002998 0.004821 -0.004088 -0.001338 -0.001207 -0.002328 0.002740 0.001044 -0.000974 -0.000027 -0.000399 0.000937
violation 0.000503 -0.002598 -0.000070 0.001497 -0.001386 -0.003012 0.001411 0.002974 0.000568 -0.004663 0.002893 0.003438 0.001355 0.000200 0.002390 -0.002109 -0.004565 0.004193 -0.001788 -0.000594 -0.003005 0.002979 -0.003850 0.000944 0.000286 -0.004341 -0.002571 0.004196 -0.004199 0.000575 -0.003356 0.001946 -0.004086 -0.002678 -0.004952 -0.000696 -0.003303 0.000476 -0.003528 0.002205 0.000782 -0.000406 0.000325 0.003846 -0.003888 0.002797 -0.002343 -0.004149 -0.002098 -0.002521 -0.002102 0.004731 -0.004694 -0.001942 -0.000693 -0.004468 -0.000540 0.001507 0.000080 0.003443 -0.000553 -0.001316 -0.002983 -0.002388 0.000902 -0.002469 0.000380 0.000803 0.004101 -0.004402 -0.003890 -0.000280 0.002245 0.002674 0.000954 0.004046 -0.001194 0.001616 -0.000799 -0.002074 0.000991 0.002995 0.003915 -0.002757 -0.001066 -0.001011 0.004878 0.004111 0.004870 0.000047 -0.001315 -0.001093 0.000132 -0.000466 -0.003446 0.000825 0.000023 -0.000850 -0.004754 0.001038
agency -0.001990 -0.004935 -0.000930 -0.002981 -0.004721 0.003250 -0.003722 0.003978 -0.004075 -0.002761 -0.000003 0.003659 0.000466 -0.001384 0.002266 -0.004366 0.004341 0.003652 -0.004835 0.000845 0.003534 0.003439 -0.004534 -0.002833 0.004688 0.002151 0.000239 -0.001294 0.000978 0.004485 -0.004371 -0.001150 -0.004073 0.003606 -0.004435 0.001154 0.004550 -0.000534 -0.003899 -0.004709 0.001517 -0.000358 0.003950 0.001479 -0.001816 0.000209 0.003601 -0.000485 -0.000792 -0.002292 -0.001561 0.003058 -0.001632 -0.001074 -0.003607 0.000665 -0.002796 -0.003503 0.000946 -0.003694 0.002616 0.000349 0.002073 -0.003916 -0.003419 -0.000637 -0.000590 -0.001960 -0.004657 -0.000905 0.000870 -0.001932 -0.002074 -0.001217 -0.001004 0.001461 -0.004388 0.000842 -0.001008 -0.002649 -0.000708 0.002807 -0.003610 0.000955 -0.004887 0.000903 -0.003432 0.000338 -0.000630 -0.001303 -0.000284 -0.004498 -0.002277 0.001735 0.003043 0.004579 0.002036 -0.001183 0.000434 -0.002145
action 0.004734 0.003506 -0.002419 -0.000419 0.003893 0.004349 -0.001154 0.001240 -0.003813 -0.003595 0.003543 -0.002212 -0.000001 0.003652 0.001033 0.002653 0.001355 0.003010 0.000121 0.002376 0.004813 -0.003543 -0.003132 -0.003028 0.004979 0.003365 0.003375 -0.001534 -0.003235 0.002797 -0.004528 0.001719 0.000597 0.003171 0.003749 -0.004282 -0.001435 -0.003357 -0.002078 -0.003167 -0.003318 0.002589 0.000537 0.002983 0.004617 -0.001305 0.001812 0.002017 -0.004534 0.003920 0.000108 -0.000292 -0.003244 -0.001300 0.001516 0.001361 -0.003427 -0.004219 0.003321 0.002496 0.002232 -0.000756 0.002747 0.001499 -0.003376 -0.004915 -0.001126 -0.001566 0.004142 -0.001434 -0.001279 0.003757 -0.000161 -0.004154 -0.003537 -0.001518 0.004844 -0.004654 -0.002097 0.001469 0.001851 0.000963 0.004640 -0.001958 -0.000420 0.002966 0.000288 0.001786 0.003961 0.000484 0.000234 -0.004366 0.004000 -0.003014 -0.003960 0.004233 -0.002206 0.001041 0.003157 0.004821
activities 0.001975 0.002983 0.004711 -0.003761 -0.000956 -0.001198 -0.000825 0.003747 0.000854 0.000074 0.002389 0.003010 0.002040 -0.003549 -0.003610 0.000598 0.001411 0.004331 -0.003381 -0.004813 -0.000016 -0.000608 0.003049 -0.002796 -0.002229 0.002940 0.004768 -0.000055 -0.004688 0.001414 -0.000457 0.001387 -0.003431 0.004230 -0.004196 -0.000783 -0.000535 0.000040 0.001445 0.000559 -0.001421 0.003739 0.004171 0.003042 0.003667 0.004422 -0.004854 0.003873 0.004885 0.000301 0.004180 0.002314 0.004978 -0.004067 0.000603 -0.002205 0.004727 0.000563 0.002040 -0.002618 -0.003967 -0.001486 0.001184 0.003810 -0.001096 -0.004929 0.004953 0.002672 0.000417 0.001136 -0.003623 -0.000443 0.000408 -0.004608 0.001348 -0.003771 0.000241 0.003672 0.001904 -0.002276 0.001518 0.003965 0.000511 0.004923 0.002381 -0.001847 -0.002749 -0.000509 0.001504 0.000585 -0.001943 -0.004916 0.001599 0.002265 -0.004028 0.002429 -0.002449 0.000960 -0.003711 0.000853
general 0.002259 0.002734 0.001139 -0.001374 0.004478 -0.000204 0.003925 0.002309 -0.000381 -0.003940 0.004749 -0.003986 -0.004943 0.001403 0.003017 -0.002353 0.003166 -0.003754 0.003571 0.000942 0.000452 0.003804 -0.000552 0.003172 -0.002939 -0.001670 -0.002915 -0.003971 0.002107 0.002910 0.004750 0.001973 0.000455 0.004668 -0.000689 -0.002934 -0.001728 0.000741 0.000391 -0.001907 0.004559 0.000827 0.002952 0.003686 -0.000790 0.001205 -0.003373 -0.001582 -0.001347 -0.004379 0.003440 -0.001702 0.001991 -0.004787 -0.001420 0.003664 -0.000662 0.004566 0.003134 -0.004581 -0.000509 0.001695 -0.001883 -0.004378 0.003299 0.000734 -0.001982 -0.002331 0.001987 -0.001975 0.004776 -0.000187 -0.000137 0.004896 -0.000922 -0.003213 0.002386 -0.004987 -0.000869 0.002717 -0.003119 0.003529 -0.004444 -0.001380 0.004522 0.000397 0.001950 0.000991 -0.000406 0.003866 -0.000437 -0.003394 0.002666 0.002875 -0.003491 0.002460 0.001907 -0.001480 0.002842 -0.000809
indian -0.000729 -0.003840 -0.004212 -0.003037 0.001290 -0.003983 -0.001567 0.002972 0.003538 0.003893 -0.002127 -0.000023 -0.001137 0.002204 0.004179 0.003677 0.004472 -0.003995 0.002628 -0.000209 -0.000324 -0.003114 -0.002662 -0.000802 -0.002182 -0.000077 0.004182 0.003424 0.004353 -0.002562 0.003632 0.004276 -0.003934 0.002721 0.003540 0.000830 0.000787 -0.003998 -0.000139 -0.000986 -0.004531 -0.003171 -0.000242 -0.001578 0.001574 -0.000943 0.002302 0.002727 0.001752 -0.002917 -0.000664 -0.003656 0.001828 -0.002462 0.002225 -0.002173 0.004147 -0.000975 -0.002911 -0.000766 0.000827 0.000288 -0.001094 0.004059 0.003620 0.003903 -0.003539 0.000040 -0.000192 -0.004645 0.000794 0.003073 0.004751 -0.004406 -0.000090 0.003597 0.004411 0.003499 0.000449 -0.001782 -0.000252 -0.001836 0.002636 -0.000900 -0.002718 -0.001352 -0.001392 0.000442 0.002522 0.001224 -0.004866 0.001625 -0.000150 -0.003385 -0.004571 -0.004986 0.004606 -0.002320 0.001467 -0.004166
